tree
version=v4
num_class=1
num_tree_per_iteration=1
label_index=0
max_feature_idx=29
objective=binary sigmoid:1
feature_names=hl_ratio BBL_20_2.0_2.0 ATRr_14 vol_ratio spy_ret_1 OBV EMA_9 BBU_20_2.0_2.0 hv_node_dist vol_ratio_5 EMA_21 vb_dist ret_20 DMP_14 orb_break_down EMA_50 vwap_dist BBP_20_2.0_2.0 ret_3 ret_1 ret_6 gap close_pos BBM_20_2.0_2.0 BBB_20_2.0_2.0 ADX_14 ADXR_14_2 DMN_14 price_to_ema21 ema_cross
feature_infos=[0:0.3281528572093263] [-8.7010911728916334:1951.8692524311764] [0.0097576314706543411:26.052511931245824] [0:9.7437867782174887] [-0.011565128389148138:0.0097932105625069266] [-253043856:1363538850] [0.53644139733399443:2015.1777410252889] [0.55276816080303048:2131.6812691664773] [-0.59109568112853461:2.2274194906831988] [0:4.7891391381707153] [0.54163293385828881:1984.8709375235417] [-0.28026596232953871:0.14119875120069508] [-0.65788940987838396:3.8361584812763292] [1.3444418133130489:87.985631840919154] [0:1] [0.55572067329739316:1940.0621804038326] [-0.14348829031351881:0.18495645214025014] [-0.51054675588307497:1.5076670618505454] [-0.63558549139503606:3.2753171578497051] [-0.12599390651705433:0.20695972647363203] [-0.63530454452640583:3.476344307657719] [-0.061016970775142128:0.10119052473274065] [0:0.99999999995481248] [0.53770599663257601:2007.7905456542971] [0.066701346417445559:331.20593724157521] [6.0280255139961936:85.357864775106208] [6.4215474395187027:84.595174606979157] [1.1282321973333518:77.5246596054712] [0.45817000338242087:2.7653193112319814] [0:1]
tree_sizes=6779

Tree=0
num_leaves=63
num_cat=0
split_feature=0 24 0 15 1 1 24 5 3 3 24 0 0 24 24 25 1 24 3 24 5 0 5 20 13 0 0 24 3 7 25 24 14 9 1 24 4 1 8 4 4 13 9 26 17 24 16 7 14 27 13 4 4 27 8 24 26 13 4 27 13 15
split_gain=1.37029e+06 162157 134063 49773.4 46095.6 39886.7 30288.2 28699.2 21424.6 20183.3 22438.2 17794.8 17398.6 13233 11752.5 11378.8 10440.8 9807.83 9050.28 8715.07 8664.07 8601.19 8439.45 8271.55 10680.3 7761 7479.2 7133.93 7042.86 7018.31 6375.53 5808.76 6063.68 5604.32 5329.85 5192.53 5185.42 5126.94 4973.69 4943.47 5888.66 4845.47 4780.71 4688.95 4505.6 4502 4496.78 4487.77 4473.63 4387.54 4217.91 4216.38 6345.33 4191.04 4081.13 4078.94 4025.6 4008.8 3974.46 3950.77 3856.31 4244.69
threshold=0.0094434148323979446 7.975076682755069 0.006572947205136773 43.748598995293342 38.550473258653483 17.487940263853769 6.7373566295142195 2124641.5000000005 1.1628669405348229 1.1098941365308643 3.5863144197060941 0.017655053594622511 0.013407019180064416 4.3464647808807912 2.1706154306399275 25.254520671458724 3.4615055836334752 7.0566135186087671 1.279245372363649 2.607472394424561 27096523.500000004 0.02054435560347322 50927293.500000007 0.0090733857701966753 31.759951263886368 0.02171136168924305 0.0046480995455282104 5.7798248580196656 1.0115490195159398 8.6163122494561808 16.119197874765906 6.451583756157441 1.0000000180025095e-35 1.3240261801462081 45.527643922983934 4.7348213383000113 -0.0021835189958561703 9.2791927981170463 0.21432259084186925 -0.00092082061825310413 -0.00079342459751824402 37.900540608217462 1.4362368520051136 16.554791625519055 0.21708454234852106 2.1932421803875957 -0.0085530298167389839 31.793280421739976 1.0000000180025095e-35 24.563106261070928 37.605926398065954 -0.00054730125578411604 -0.0004969945518585871 27.530241480116839 0.21432259084186925 22.94374887907993 18.859274375205654 30.796723585967005 -0.0045387082891051858 32.379790710653374 24.131701404300134 117.81691416894731
decision_type=2 2 2 2 2 2 2 2 2 2 2 2 2 2 2 2 2 2 2 2 2 2 2 2 2 2 2 2 2 2 2 2 2 2 2 2 2 2 2 2 2 2 2 2 2 2 2 2 2 2 2 2 2 2 2 2 2 2 2 2 2 2
left_child=2 3 6 12 11 17 8 21 14 10 -7 37 27 18 38 47 -16 45 53 60 28 33 30 43 34 -9 -21 29 48 -2 -12 32 -32 -6 -25 49 -33 -3 -1 58 -41 -30 -17 -18 -42 -4 -38 -8 57 -14 -28 -36 -53 -5 -31 -13 -49 -15 -11 -48 61 -10
right_child=1 4 5 13 7 9 15 25 19 39 22 55 35 20 16 42 23 -19 -20 26 -22 -23 -24 24 -26 -27 50 -29 41 54 31 36 -34 -35 51 -37 46 -39 -40 40 44 -43 -44 -45 -46 -47 59 56 -50 -51 -52 52 -54 -55 -56 -57 -58 -59 -60 -61 -62 -63
leaf_value=-3.5328472821479644 -2.3680248236773962 -2.0719370504915036 -3.4519939745175563 -3.0520988829045708 -2.8747058181184846 -3.361149126317474 -2.349402652211865 -2.3043709254960008 -3.3315349380158343 -2.5484156177328678 -2.6040609855443195 -2.0044402247042714 -2.3489081177092315 -2.6940202086569487 -2.1785741258145093 -3.1565197089967909 -3.1934085970404413 -2.3243283710743947 -2.6997956892897679 -3.2231960471055272 -2.167006217246831 -2.3157171809482144 -2.2803905671637636 -2.8529426403668681 -3.4200736398960689 -1.9834968700185209 -2.8729422580746911 -2.3890883621244399 -2.5076370832902035 -2.8069677197690557 -3.0472783371948844 -3.4245531880696887 -3.478245811564936 -2.4602070051703757 -3.5542940026871155 -2.2075405509348878 -2.4653521870427948 -2.244366538280806 -2.0516274960109921 -2.1631398088564282 -3.0374543447523674 -3.2192634797487578 -2.7870446695686386 -3.4142994743882267 -2.6771272310425176 -2.6630629138251618 -2.8256533615428667 -2.3767624354860675 -3.1996759985859544 -2.8319853074919332 -3.6428129561898079 -2.1052338084026019 -3.1592760442896433 -3.489797702018508 -2.0926318416706917 -1.8783297319438383 -3.0776051929268577 -3.1501595967880167 -3.0871115682851835 -3.2173761479170175 -3.4820801323306743 -2.9610486534227731
leaf_weight=956.93246226757765 146.59178983420134 787.68564480543137 19.015986323356628 236.49602308124304 299.98003707081079 457.33843685686588 82.761076256632805 471.72632424533367 209.82850316911936 43.103124648332596 104.79723499715328 2061.946534961462 211.73129070550203 263.88710253685713 19.825242005288601 425.32121615856886 278.56223905831575 309.61207927763462 171.23037048429251 302.660325050354 79.908743552863598 146.28235574066639 45.276993371546268 204.43000926822424 317.67143097519875 313.80741966515779 445.40434401482344 400.8556951507926 345.2240424528718 392.88290987163782 460.02387227118015 41.562986813485622 99.222418867051601 111.99360759556293 61.488715164363384 920.25350184738636 67.797966010868549 952.27123000472784 5.7011128440499297 47.819964475929737 104.89764884859324 25.701444678008556 110.24466700106859 1746.7119352519512 501.63275208324194 368.50910271704197 313.05645488202572 30.093915216624737 77.790410600602627 60.415120951831341 18.531244918704033 15.339680224657057 206.36853992193937 71.142145246267319 21.06689341366291 930.55378530919552 64.199598476290703 58.923558749258518 166.50954312831163 81.026853375136852 180.60336693376303 122.41482285410166
leaf_count=34617 1982 6114 658 6344 7012 15017 1089 5794 6769 734 1898 13298 2784 5241 195 12273 8238 3923 3420 9126 768 1829 535 4692 10795 1896 10396 5584 5605 8666 12297 1416 3484 1715 2250 9570 1045 10585 42 456 2784 773 2389 59160 9798 7097 7019 412 2310 1362 710 129 5966 2514 172 3719 1754 1693 4580 2434 6355 3067
internal_value=-2.68574 -2.26847 -3.12721 -2.54041 -2.11254 -2.86907 -3.27089 -2.37098 -3.31362 -2.96121 -3.06271 -2.03916 -2.39189 -2.78087 -3.37302 -2.96559 -3.32201 -2.53414 -2.99115 -3.13657 -2.66261 -2.64508 -2.95016 -3.33002 -3.19447 -2.17619 -3.02984 -2.55015 -2.71394 -2.66533 -2.97614 -3.01283 -3.12374 -2.76203 -3.0475 -2.26428 -2.88962 -2.16631 -3.52407 -2.76502 -2.69733 -2.55695 -3.08046 -3.38392 -2.73944 -2.70178 -2.84149 -2.6181 -2.8593 -2.45615 -2.90369 -3.18795 -3.08635 -3.15332 -2.77061 -1.96522 -2.85393 -2.77728 -2.97634 -2.90619 -3.29612 -3.19503
internal_weight=18596.6 9560.35 9036.3 3484.1 6076.25 3231.2 5805.09 1343.79 5092.47 2534.07 1670.1 4732.46 2153.8 1330.3 3813.03 712.62 2850.4 697.137 478.869 1279.44 851.435 558.256 1212.76 2830.57 805.298 785.534 766.596 961.397 771.527 560.542 1167.49 1062.69 559.246 411.974 487.627 1192.4 503.444 1739.96 962.634 863.963 654.35 370.925 535.566 2025.27 606.53 387.525 461.881 177.055 400.601 272.146 463.936 283.197 221.708 307.638 413.95 2992.5 94.2935 322.811 209.613 394.083 512.847 332.243
internal_count=366349 110750 255599 58788 51962 75175 180424 18246 162507 63497 45145 33716 30120 28668 126084 17917 91425 11678 12278 36423 16390 10556 30128 91230 23832 7690 20232 16404 15622 10820 29593 27695 15781 8727 13037 13716 11914 16699 34659 18352 13038 6378 14662 67398 12582 7755 10498 3255 9244 4146 11106 8345 6095 8858 8838 17017 2166 6934 5314 9453 16191 9836
is_linear=0
shrinkage=1


end of trees

feature_importances:
BBB_20_2.0_2.0=12
hl_ratio=7
spy_ret_1=6
BBL_20_2.0_2.0=5
DMP_14=5
vol_ratio=4
OBV=3
DMN_14=3
BBU_20_2.0_2.0=2
hv_node_dist=2
vol_ratio_5=2
orb_break_down=2
EMA_50=2
ADX_14=2
ADXR_14_2=2
vwap_dist=1
BBP_20_2.0_2.0=1
ret_6=1

parameters:
[boosting: gbdt]
[objective: binary]
[metric: binary_logloss]
[tree_learner: serial]
[device_type: cpu]
[data_sample_strategy: bagging]
[data: ]
[valid: ]
[num_iterations: 1000]
[learning_rate: 0.05]
[num_leaves: 63]
[num_threads: -1]
[seed: 0]
[deterministic: 0]
[force_col_wise: 0]
[force_row_wise: 0]
[histogram_pool_size: -1]
[max_depth: -1]
[min_data_in_leaf: 20]
[min_sum_hessian_in_leaf: 0.001]
[bagging_fraction: 0.8]
[pos_bagging_fraction: 1]
[neg_bagging_fraction: 1]
[bagging_freq: 5]
[bagging_seed: 3]
[bagging_by_query: 0]
[feature_fraction: 0.8]
[feature_fraction_bynode: 1]
[feature_fraction_seed: 2]
[extra_trees: 0]
[extra_seed: 6]
[early_stopping_round: 0]
[early_stopping_min_delta: 0]
[first_metric_only: 0]
[max_delta_step: 0]
[lambda_l1: 0]
[lambda_l2: 0]
[linear_lambda: 0]
[min_gain_to_split: 0]
[drop_rate: 0.1]
[max_drop: 50]
[skip_drop: 0.5]
[xgboost_dart_mode: 0]
[uniform_drop: 0]
[drop_seed: 4]
[top_rate: 0.2]
[other_rate: 0.1]
[min_data_per_group: 100]
[max_cat_threshold: 32]
[cat_l2: 10]
[cat_smooth: 10]
[max_cat_to_onehot: 4]
[top_k: 20]
[monotone_constraints: ]
[monotone_constraints_method: basic]
[monotone_penalty: 0]
[feature_contri: ]
[forcedsplits_filename: ]
[refit_decay_rate: 0.9]
[cegb_tradeoff: 1]
[cegb_penalty_split: 0]
[cegb_penalty_feature_lazy: ]
[cegb_penalty_feature_coupled: ]
[path_smooth: 0]
[interaction_constraints: ]
[verbosity: -1]
[saved_feature_importance_type: 0]
[use_quantized_grad: 0]
[num_grad_quant_bins: 4]
[quant_train_renew_leaf: 0]
[stochastic_rounding: 1]
[linear_tree: 0]
[max_bin: 255]
[max_bin_by_feature: ]
[min_data_in_bin: 3]
[bin_construct_sample_cnt: 200000]
[data_random_seed: 1]
[is_enable_sparse: 1]
[enable_bundle: 1]
[use_missing: 1]
[zero_as_missing: 0]
[feature_pre_filter: 1]
[pre_partition: 0]
[two_round: 0]
[header: 0]
[label_column: ]
[weight_column: ]
[group_column: ]
[ignore_column: ]
[categorical_feature: ]
[forcedbins_filename: ]
[precise_float_parser: 0]
[parser_config_file: ]
[objective_seed: 5]
[num_class: 1]
[is_unbalance: 1]
[scale_pos_weight: 1]
[sigmoid: 1]
[boost_from_average: 1]
[reg_sqrt: 0]
[alpha: 0.9]
[fair_c: 1]
[poisson_max_delta_step: 0.7]
[tweedie_variance_power: 1.5]
[lambdarank_truncation_level: 30]
[lambdarank_norm: 1]
[label_gain: ]
[lambdarank_position_bias_regularization: 0]
[eval_at: ]
[multi_error_top_k: 1]
[auc_mu_weights: ]
[num_machines: 1]
[local_listen_port: 12400]
[time_out: 120]
[machine_list_filename: ]
[machines: ]
[gpu_platform_id: -1]
[gpu_device_id: -1]
[gpu_use_dp: 0]
[num_gpu: 1]

end of parameters

pandas_categorical:[]
