tree
version=v4
num_class=1
num_tree_per_iteration=1
label_index=0
max_feature_idx=29
objective=binary sigmoid:1
feature_names=hl_ratio BBL_20_2.0_2.0 ATRr_14 hv_node_dist EMA_50 vwap_dist vol_ratio_5 ret_20 spy_ret_1 EMA_9 BBP_20_2.0_2.0 EMA_21 vol_ratio DMN_14 gap OBV rs_vs_spy_20 ret_1 ret_3 ret_6 close_pos BBM_20_2.0_2.0 BBU_20_2.0_2.0 BBB_20_2.0_2.0 ADX_14 ADXR_14_2 DMP_14 price_to_ema21 ema_cross orb_break_up
feature_infos=[0:0.82476462779153947] [-1.3591504982721236:5559.6842083540259] [0.0023510050416368973:349.60387614351208] [-0.81061100752465776:3.0236990482283237] [0.14543474205707735:5543.8149068801231] [-0.38207398612156196:21659999847.412109] [0:4.9999999999960965] [-0.70429379157189009:4.1699042334302137] [-0.011565128389148138:0.0097932105625069266] [0.13801900614216667:5894.2804530389603] [-0.52414311452568629:1.547175376949544] [0.14346596663856473:5773.8282133003013] [0:10.467268154343737] [0.85981516697677773:75.976650727475558] [-0.23234394588422538:0.14185176390839879] [-221680928:2011795239] [-0.69390569203319841:4.1576173592538455] [-0.401228287560222:1.1118012827067529] [-0.60891647308835384:1.574998114443904] [-0.61060946034194719:2.3098591206400565] [0:0.99999999999897438] [0.14309045001864434:5889.6374999999998] [0.1463460002953689:6599.4900330228911] [0.13708670343322518:266.6422626003116] [5.1398591462348948:83.816803458463184] [5.4662691279050062:83.605589917580687] [2.1654821713561314:80.105686220297628] [0.46891204855899987:2.0209674984176988] [0:1] [0:1]
tree_sizes=6773

Tree=0
num_leaves=63
num_cat=0
split_feature=23 0 1 23 23 22 4 0 0 4 0 12 12 3 3 1 23 0 5 12 3 3 15 5 5 13 16 5 23 4 5 5 1 15 15 1 3 15 17 26 4 24 13 13 9 5 27 0 13 3 23 24 5 0 5 3 0 5 16 5 24 0
split_gain=1.80115e+06 220452 162823 106708 50934.9 45238.9 41867.3 31019.8 30504 26994.4 22879.4 17984.7 15350.1 14644.8 13870.1 12135.7 11463.2 11135.2 10502.2 9219.22 12037.3 9023.66 9023.38 8932.97 8718.19 8473.05 9754.27 8190.07 7428.99 9629.74 7177.36 7134.68 6920.73 6758.65 7261.53 11838 7042.2 6427.54 6352.24 6337.18 6084.79 6057.3 5764.93 5706.27 5649.36 5640.86 5898.52 5397.79 5403.65 5377.65 5361.33 5209.57 6488.66 5762.81 5199.45 5175.29 5111.19 5099.18 5009.88 4947.88 4889.89 4759.38
threshold=8.2590453776036092 0.011293552975256525 29.896609982926321 14.671677229159693 4.5593340358541914 10.96587645731619 21.106802357569777 0.017457554425267526 0.020227159284647227 10.1774953217597 0.041033015760761821 1.0498516093168544 1.1949659202605043 -0.18803417153046112 -0.13059826596766261 6.4915221446872122 3.0620755593299793 0.0021458626382425548 -0.0080161633761851054 1.1264528095078161 -0.11170673466564991 -0.15004532561944664 10824784.500000002 -0.030279519966545793 0.016013433247167145 21.746265097555497 -0.032463919627544351 -0.011979332069154483 2.6555689218408243 20.52403946566082 -0.024196730475991787 0.015290524398194389 8.6094201690265901 17261054.000000004 -5651526.9999999991 17.840732240367888 -0.43907336928180069 69240112.500000015 -0.015544000646500742 30.084506727645422 13.678168043549901 12.299803230876659 31.114673465034702 35.05294010029727 2.7895328001648743 -0.0082074341646984818 0.9953842711043428 0.0053908732251320389 20.423129449979005 -0.13059826596766261 3.7603744106425014 14.858271278754382 -0.011621596742643396 0.0073190517905016598 0.012966539671938835 -0.21330187036206935 0.037634372391388331 -0.030279519966545793 0.021262143522385982 -0.011274305850109511 25.50894454259106 0.034943835568207703
decision_type=2 2 2 2 2 2 2 2 2 2 2 2 2 2 2 2 2 2 2 2 2 2 2 2 2 2 2 2 2 2 2 2 2 2 2 2 2 2 2 2 2 2 2 2 2 2 2 2 2 2 2 2 2 2 2 2 2 2 2 2 2 2
left_child=1 4 3 8 11 17 14 18 9 21 23 28 27 40 50 25 -13 -6 43 20 -8 -2 31 -5 37 60 42 49 -1 47 -10 39 -25 34 -34 -36 -37 -20 -23 59 -11 -18 -27 -4 -40 -43 -47 -30 -49 -7 -3 -19 -53 54 -54 -29 -17 -9 -48 -15 -16 -32
right_child=2 6 7 10 5 12 19 57 30 13 -12 16 -14 22 15 56 41 51 24 -21 -22 38 -24 32 -26 26 -28 55 29 -31 61 -33 33 -35 35 36 -38 -39 44 -41 -42 45 -44 -45 -46 46 58 48 -50 -51 -52 52 53 -55 -56 -57 -58 -59 -60 -61 -62 -63
leaf_value=-3.8537810053971828 -2.0235992848048072 -3.9255394928641585 -2.4221183048707506 -1.6686450883593187 -2.3960604486557617 -1.9058475543960209 -2.5927518686529876 -1.8167102153468146 -1.7839818389900786 -3.2112470696366882 -1.6427366705534041 -3.6094016674038416 -3.1215349334634004 -2.4643491971814862 -2.2249271253080636 -2.9915020881295176 -2.4471520342344508 -2.5747850167050088 -3.4612488221856386 -2.95610717215976 -3.5874092681094898 -1.9153677451535636 -2.1841016718105415 -1.9025223213894584 -2.476648627232044 -2.1438566813494182 -3.1499620984437349 -2.4954780884666832 -3.6483909870249409 -3.7574059517823808 -2.2112094566050584 -2.3058222504827337 -1.8879498988034615 -1.8026065294357974 -2.2327301200766687 -1.6236889025717858 -3.4428066914725508 -2.3504893454868463 -2.2018342402608262 -3.43916093343688 -1.8857916441664464 -2.6058528540686279 -3.339443565365753 -3.3681050103592041 -2.5237073417822975 -3.7177825991896478 -3.1041727307852227 -2.9162881221929968 -3.4842457401593103 -3.2456954065951065 -2.2690702680766917 -2.457300798144459 -3.5694292242143337 -2.97544578776979 -2.3071239483088242 -3.6353127215113505 -2.2124746315020003 -2.499470768940228 -3.7788418821095719 -3.0377908572202381 -2.7734581950085362 -1.9627416777143178
leaf_weight=805.34596911072731 283.59311451390386 4.9821203574538222 60.862172931432724 304.07319949194789 99.183982435613871 10.730053838342426 36.13379430025816 33.113195952028036 205.76231744885445 10.113226521760224 1199.3241738341749 517.93704496696591 239.59403362125158 49.437784388661385 182.65387945994735 329.98198052495718 22.8025958314538 60.610382571816444 243.75437784194946 186.28946354985237 192.27565284073353 71.872476439923048 42.864547662436962 1262.8749198243022 28.252557698637247 55.411255456507206 93.140944164246321 10.10278447717428 139.01189533993602 644.46995814144611 495.8208604156971 37.16595758125186 100.44925852492452 116.82760343700647 194.8754072599113 6.2765160426497451 34.916906002908945 13.759183015674351 208.14586467668414 74.261097028851509 60.205783974379301 27.369380224496126 12.325287960469721 21.598356116563082 395.07208402454853 81.131054438650608 170.03385167196393 76.347558610141277 92.761052086949348 24.793237436562777 250.02854806557298 36.080333147197962 94.664699867367744 149.53060642629862 8.927004072815178 696.92547405511141 22.490064419806004 157.03158598765731 32.828533206135035 157.31948051974177 52.251818023622036 315.28410838544369
leaf_count=39280 3667 250 1262 1818 2006 114 870 294 1695 366 6562 22783 8250 1066 3082 10522 484 1438 10015 5811 8375 777 689 13335 616 847 3259 224 6221 30217 8233 686 1032 1005 3318 32 1422 266 3418 3019 616 666 477 848 8978 3741 5797 2322 3853 914 4435 773 4090 4721 165 31010 374 3494 1553 5159 1443 3701
internal_value=-2.66905 -3.33096 -2.08482 -2.004 -3.51917 -3.27945 -2.79456 -2.89918 -2.25584 -2.40808 -1.81573 -3.65061 -3.46952 -2.73655 -2.61989 -2.72842 -3.4621 -2.86368 -3.16698 -3.21715 -3.43006 -2.26028 -2.86512 -1.91843 -3.31042 -2.53839 -2.81794 -3.5818 -3.74199 -3.64748 -2.04772 -2.95687 -1.96268 -2.13026 -2.24401 -2.39552 -3.16563 -3.4019 -2.3597 -3.04297 -2.07642 -3.23378 -2.3614 -2.66989 -2.41264 -3.29139 -3.35746 -3.41757 -3.22783 -2.84099 -2.30143 -2.99627 -3.0846 -3.17402 -3.46065 -3.61903 -2.94179 -2.38057 -3.21335 -2.90068 -2.34694 -2.11463
internal_weight=11644.1 5459.15 6184.91 5626.54 4041.18 1431.14 1417.96 558.371 2406.92 1390.05 3219.62 2610.04 982.146 431.368 1003.27 748.255 852.102 448.997 368.227 414.699 228.409 958.684 361.049 2020.29 285.766 395.783 160.877 742.552 1757.94 952.59 1016.87 318.184 1716.22 453.346 336.518 236.069 41.1934 257.514 675.09 281.018 70.319 334.165 67.7365 82.4605 603.218 311.363 283.993 308.121 169.109 35.5233 255.011 349.813 289.203 253.122 103.592 707.028 352.472 190.145 202.862 206.757 234.906 811.105
internal_count=297756 210367 87389 70594 170622 53705 39745 16795 42070 28441 28524 116917 40512 11601 24689 20004 35024 13193 13007 15056 9245 16840 10619 21962 10897 9108 4583 32262 81893 42613 13629 9930 20144 6809 5804 4772 1454 10281 13173 9244 982 12241 1324 2110 12396 11757 11091 12396 6175 1028 4685 11187 9749 8976 4255 31234 10896 3788 7350 6225 4525 11934
is_linear=0
shrinkage=1


end of trees

feature_importances:
vwap_dist=11
hl_ratio=9
hv_node_dist=7
BBB_20_2.0_2.0=6
BBL_20_2.0_2.0=4
EMA_50=4
DMN_14=4
OBV=4
vol_ratio=3
ADX_14=3
rs_vs_spy_20=2
EMA_9=1
ret_1=1
BBU_20_2.0_2.0=1
DMP_14=1
price_to_ema21=1

parameters:
[boosting: gbdt]
[objective: binary]
[metric: binary_logloss]
[tree_learner: serial]
[device_type: cpu]
[data_sample_strategy: bagging]
[data: ]
[valid: ]
[num_iterations: 1000]
[learning_rate: 0.05]
[num_leaves: 63]
[num_threads: -1]
[seed: 0]
[deterministic: 0]
[force_col_wise: 0]
[force_row_wise: 0]
[histogram_pool_size: -1]
[max_depth: -1]
[min_data_in_leaf: 20]
[min_sum_hessian_in_leaf: 0.001]
[bagging_fraction: 0.8]
[pos_bagging_fraction: 1]
[neg_bagging_fraction: 1]
[bagging_freq: 5]
[bagging_seed: 3]
[bagging_by_query: 0]
[feature_fraction: 0.8]
[feature_fraction_bynode: 1]
[feature_fraction_seed: 2]
[extra_trees: 0]
[extra_seed: 6]
[early_stopping_round: 0]
[early_stopping_min_delta: 0]
[first_metric_only: 0]
[max_delta_step: 0]
[lambda_l1: 0]
[lambda_l2: 0]
[linear_lambda: 0]
[min_gain_to_split: 0]
[drop_rate: 0.1]
[max_drop: 50]
[skip_drop: 0.5]
[xgboost_dart_mode: 0]
[uniform_drop: 0]
[drop_seed: 4]
[top_rate: 0.2]
[other_rate: 0.1]
[min_data_per_group: 100]
[max_cat_threshold: 32]
[cat_l2: 10]
[cat_smooth: 10]
[max_cat_to_onehot: 4]
[top_k: 20]
[monotone_constraints: ]
[monotone_constraints_method: basic]
[monotone_penalty: 0]
[feature_contri: ]
[forcedsplits_filename: ]
[refit_decay_rate: 0.9]
[cegb_tradeoff: 1]
[cegb_penalty_split: 0]
[cegb_penalty_feature_lazy: ]
[cegb_penalty_feature_coupled: ]
[path_smooth: 0]
[interaction_constraints: ]
[verbosity: -1]
[saved_feature_importance_type: 0]
[use_quantized_grad: 0]
[num_grad_quant_bins: 4]
[quant_train_renew_leaf: 0]
[stochastic_rounding: 1]
[linear_tree: 0]
[max_bin: 255]
[max_bin_by_feature: ]
[min_data_in_bin: 3]
[bin_construct_sample_cnt: 200000]
[data_random_seed: 1]
[is_enable_sparse: 1]
[enable_bundle: 1]
[use_missing: 1]
[zero_as_missing: 0]
[feature_pre_filter: 1]
[pre_partition: 0]
[two_round: 0]
[header: 0]
[label_column: ]
[weight_column: ]
[group_column: ]
[ignore_column: ]
[categorical_feature: ]
[forcedbins_filename: ]
[precise_float_parser: 0]
[parser_config_file: ]
[objective_seed: 5]
[num_class: 1]
[is_unbalance: 1]
[scale_pos_weight: 1]
[sigmoid: 1]
[boost_from_average: 1]
[reg_sqrt: 0]
[alpha: 0.9]
[fair_c: 1]
[poisson_max_delta_step: 0.7]
[tweedie_variance_power: 1.5]
[lambdarank_truncation_level: 30]
[lambdarank_norm: 1]
[label_gain: ]
[lambdarank_position_bias_regularization: 0]
[eval_at: ]
[multi_error_top_k: 1]
[auc_mu_weights: ]
[num_machines: 1]
[local_listen_port: 12400]
[time_out: 120]
[machine_list_filename: ]
[machines: ]
[gpu_platform_id: -1]
[gpu_device_id: -1]
[gpu_use_dp: 0]
[num_gpu: 1]

end of parameters

pandas_categorical:[]
