tree
version=v4
num_class=1
num_tree_per_iteration=1
label_index=0
max_feature_idx=29
objective=binary sigmoid:1
feature_names=hl_ratio ATRr_14 BBL_20_2.0_2.0 hv_node_dist vwap_dist rs_vs_spy_20 OBV BBU_20_2.0_2.0 EMA_21 ret_20 DMP_14 vol_ratio BBP_20_2.0_2.0 EMA_50 vol_ratio_5 ADX_14 DMN_14 ret_1 ret_3 ret_6 gap close_pos BBM_20_2.0_2.0 BBB_20_2.0_2.0 ADXR_14_2 EMA_9 price_to_ema21 ema_cross orb_break_up orb_break_down
feature_infos=[0:0.91817997089564651] [0.0030654004169248278:3221.9571526779505] [-2542.3264170771863:61995.108827226002] [-0.94290322641665603:5.1197572127328046] [-0.64199975297128087:1756800048828.125] [-0.95104172883003646:14.014098563702822] [-564459291:2391616172] [0.16121269772554275:66843.564248825583] [0.15147215518148763:64752.488638568662] [-0.92445196061351997:14.018773000752853] [0.79658439929226132:87.578471323795796] [0:10.207115992899611] [-0.51933005627642614:1.5581301629147566] [0.16728609887365764:67025.733639615923] [0:4.99999999999942] [5.1398591462348948:85.80550810531733] [0.90352258485048165:80.064817505191712] [-0.4599449080650253:1.5083333651224771] [-0.84915555826822919:13.744049480760102] [-0.88944625605977712:15.125069079703646] [-0.19352276612451161:0.60020874913473743] [0:0.99999999999959299] [0.14232999980449679:64204.875195312503] [0.13708670343322518:648.68475901242437] [5.4018080086243616:85.725373085184401] [0.13911094964970433:63832.838094508021] [0.14110677797874932:3.3212660184392138] [0:1] [0:1] [0:1]
tree_sizes=6782

Tree=0
num_leaves=63
num_cat=0
split_feature=23 23 23 0 0 3 0 3 0 7 7 1 4 4 1 13 4 16 23 13 15 16 25 4 4 16 1 23 1 0 4 25 0 20 26 1 13 4 26 4 1 25 3 22 14 16 11 1 13 16 4 12 24 1 13 0 13 1 16 0 9 4
split_gain=802433 90130.5 80755.4 25491.7 24569.1 19392.2 14271.6 12624.9 11883.3 11015.2 10212.3 10134.4 6808.91 5551.1 5319.15 5944.2 4315.25 5645.08 4179.3 3947.17 3787.12 3648.03 3305.31 3287.56 3816.6 3112.59 3096.05 2865.23 2732.32 2708.03 2691.83 2616.88 2504.97 2493.22 2475.51 2447.02 3846.56 2438.57 2256.09 2253.18 2178.42 3874.38 2454.87 2415.44 2141.84 2063.64 2061.78 1982.33 2168.91 1900.58 1883.68 1990.94 2142.69 2027.05 4763.09 1872.94 2766.52 3514.31 1750.47 1736.79 1665.32 1641.53
threshold=8.9287626334621528 17.3628178989402 4.4791233633239225 0.035597289746540493 0.017652145374481547 -0.21916224547428151 0.039451238854765043 -0.16443574625416971 0.0075414563140369728 3.9315333521178903 6.8187303271882564 0.24717103061422177 -0.027808914448661449 0.0081204135460196895 0.05691684083579876 2.1537912353733017 -0.02053358739632689 28.597235178169353 27.565670600356949 2.2380282505742763 25.350526690053432 21.510955668444108 11.814053920918578 -0.027808914448661449 0.019653990911437647 25.382179599268234 0.15515573533243249 2.1208296276070464 1.1705308357105759 0.031970616370192391 -0.024537896174910402 2.2070876481502886 0.085021798613425986 0.0061936101271670612 1.038985515330008 0.14930317849941008 15.339773861158934 0.0070209543796844265 1.0019827914642174 -0.017055214105866783 0.11971716204090402 4.4751386946870495 -0.019476136893240865 1.4677300035953524 1.2945253575042244 35.517917097551027 1.0311451735687378 0.05691684083579876 3.0376204822906145 36.43849829662777 -0.026592413324278499 0.57464220473088268 15.20738913202306 3.9070915421583181 9.6589615732530962 0.022556369071234431 17.543546711165529 0.51017394189622556 32.160965217181889 0.04710468916382405 -0.11343876979955424 -0.002831744764144222
decision_type=2 2 2 2 2 2 2 2 2 2 2 2 2 2 2 2 2 2 2 2 2 2 2 2 2 2 2 2 2 2 2 2 2 2 2 2 2 2 2 2 2 2 2 2 2 2 2 2 2 2 2 2 2 2 2 2 2 2 2 2 2 2
left_child=2 3 8 7 5 -4 12 50 27 14 23 22 -3 20 15 -7 -13 37 45 -10 25 31 26 -9 40 33 -12 -1 -19 58 -5 -6 -8 38 -32 -21 61 55 -11 -22 41 42 43 -25 -28 -14 59 -45 -49 -50 -2 52 -52 54 -54 56 -18 -58 -23 -38 -24 -37
right_child=1 6 4 30 21 9 32 10 19 13 11 16 18 -15 -16 -17 17 28 -20 35 39 29 60 24 -26 -27 44 -29 -30 -31 34 -33 -34 -35 -36 36 46 -39 -40 -41 -42 -43 -44 47 -46 -47 -48 48 49 -51 51 -53 53 -55 -56 -57 57 -59 -60 -61 -62 -63
leaf_value=-3.2693247007358681 -2.2408564485754798 -2.1227451512611237 -2.5160850719927774 -2.1592043159191907 -2.4205364699569905 -2.7641882004375398 -2.1434249624567672 -2.2610831088805532 -2.7362866585509447 -2.8375690911353355 -3.0718183687920506 -2.3422607067747943 -2.3279119184467447 -2.8174816406162471 -2.5388877345863969 -3.1662794440778219 -2.5352332604563954 -2.9459933105007883 -2.2168267965688964 -3.1304310293027293 -2.6719292077444492 -2.7558277964353404 -2.0466258493513365 -2.4998202332678368 -2.327753447605482 -3.0749735021965448 -2.8226323657243877 -3.1652943997393277 -2.5310055300990775 -2.5807206353330328 -2.3807855307298631 -2.6379448460071742 -2.0420096368461151 -2.5678072759776622 -2.2010705333970222 -2.4672610672503525 -3.1873275545340558 -2.4605870381199102 -3.0472961815962987 -3.1567655554015013 -2.4153159263257389 -2.9433996394347388 -2.4860297697284071 -2.9205044186828943 -2.453366016480075 -2.4893667250655218 -2.9162816226739627 -2.4419756540067441 -2.9316966116394281 -2.3909080625080619 -2.3055989415250107 -2.3201736363615946 -2.4674343702765711 -2.2766789859236796 -2.833840873290665 -2.4620041019633661 -3.2027933512789279 -2.7046868889389319 -3.0059250500121877 -1.9340651405755851 -3.2335234946983444 -2.8844658732352793
leaf_weight=1194.2757807150483 162.6770886182785 665.02605091780424 277.3433821387589 360.20498115569353 205.45389607548714 381.17653346061707 1772.7117392681539 131.2370105497539 118.23177159205079 264.84833616018295 90.564405079931021 134.51537143439054 1371.2729473225772 313.30638380721211 171.85976548492908 121.12074433267117 128.68647445365787 184.71288295090199 905.37118240445852 419.43133575841784 24.879502922296524 353.46708400920033 3.0689254701137534 168.11384504288435 214.59834337979555 533.31946431472898 137.75103805586696 1484.739151339978 50.510930176824331 192.94631068408489 583.53263270482421 424.16228669136763 927.43890471756458 49.576361544430256 285.30449486896396 46.55392287299037 161.83592238277197 283.20781711116433 248.58333103731275 650.71667546033859 224.63631650060415 71.073030695319176 508.29964339733124 98.086339972913265 54.926750160753727 231.29420826211572 166.20091255009174 76.756472814828157 68.691498521715403 21.280138306319714 161.82399429380894 328.55760876089334 412.86604963615537 80.467956230044365 112.96340776607394 98.677517618983984 48.464592594653368 131.46883321925998 87.230810519307852 2.8124527744948855 79.864178329706192 47.770103868097067
leaf_count=32329 1190 3356 3495 2070 2212 6620 9650 1011 1990 4973 2108 1246 12324 5762 2241 3039 1669 3853 6205 10235 388 6082 11 2066 1928 12446 2547 37225 651 2671 5837 6338 3242 674 1869 543 4126 3267 5669 16208 2396 1479 6112 1998 626 2796 3372 858 1414 217 1385 2904 4817 644 2113 1141 1250 2133 1920 4 2107 940
internal_value=-2.59863 -2.32928 -2.98428 -2.47478 -2.83754 -2.91463 -2.19308 -2.53255 -3.15752 -2.95469 -2.58818 -2.68521 -2.26498 -3.01149 -2.77899 -2.86115 -2.60688 -2.64533 -2.3027 -3.00687 -3.04579 -2.65224 -2.91199 -2.50074 -2.5224 -2.98841 -2.8307 -3.21167 -2.85688 -2.73694 -2.27413 -2.567 -2.10859 -2.90642 -2.32177 -3.04474 -2.96021 -2.57327 -2.93911 -3.13891 -2.55617 -2.58743 -2.56055 -2.64805 -2.71737 -2.35121 -3.04052 -2.74215 -2.63722 -2.80379 -2.39963 -2.42318 -2.46724 -2.51038 -2.54615 -2.65162 -2.71225 -2.83885 -2.80533 -3.16592 -3.1896 -2.67855
internal_weight=19312.5 11370.7 7941.84 5497.59 4299.99 3036.73 5873.12 4268.55 3641.85 2759.39 3009.19 1426.42 3172.96 2085.23 674.157 502.297 1060.24 925.729 2507.94 962.836 1771.92 1263.26 366.175 1582.77 1451.54 1096.33 283.242 2679.01 235.224 633.644 1229.04 629.616 2700.15 563.008 868.837 844.605 425.173 690.505 513.432 675.596 1236.94 1012.3 941.228 432.928 192.678 1602.57 330.849 264.814 166.728 89.9716 1259.36 1096.68 768.121 606.297 525.829 407.297 308.62 179.933 440.698 164.648 82.9331 94.324
internal_count=273992 102490 171502 64917 80738 61515 37573 55141 90764 58020 42088 22609 24681 46120 11900 9659 15210 13964 21325 21210 40358 19223 7399 19479 18468 23762 5281 69554 4504 10673 9776 8550 12892 11316 7706 19220 8985 9460 10642 16596 16540 14144 12665 6553 3173 15120 7502 4487 2489 1631 13053 11863 8959 7574 6930 6193 5052 3383 8002 4130 2118 1483
is_linear=0
shrinkage=1


end of trees

feature_importances:
vwap_dist=10
ATRr_14=9
hl_ratio=8
EMA_50=6
DMN_14=6
BBB_20_2.0_2.0=5
hv_node_dist=3
EMA_9=3
BBU_20_2.0_2.0=2
price_to_ema21=2
ret_20=1
vol_ratio=1
BBP_20_2.0_2.0=1
vol_ratio_5=1
ADX_14=1
gap=1
BBM_20_2.0_2.0=1
ADXR_14_2=1

parameters:
[boosting: gbdt]
[objective: binary]
[metric: binary_logloss]
[tree_learner: serial]
[device_type: cpu]
[data_sample_strategy: bagging]
[data: ]
[valid: ]
[num_iterations: 1000]
[learning_rate: 0.05]
[num_leaves: 63]
[num_threads: -1]
[seed: 0]
[deterministic: 0]
[force_col_wise: 0]
[force_row_wise: 0]
[histogram_pool_size: -1]
[max_depth: -1]
[min_data_in_leaf: 20]
[min_sum_hessian_in_leaf: 0.001]
[bagging_fraction: 0.8]
[pos_bagging_fraction: 1]
[neg_bagging_fraction: 1]
[bagging_freq: 5]
[bagging_seed: 3]
[bagging_by_query: 0]
[feature_fraction: 0.8]
[feature_fraction_bynode: 1]
[feature_fraction_seed: 2]
[extra_trees: 0]
[extra_seed: 6]
[early_stopping_round: 0]
[early_stopping_min_delta: 0]
[first_metric_only: 0]
[max_delta_step: 0]
[lambda_l1: 0]
[lambda_l2: 0]
[linear_lambda: 0]
[min_gain_to_split: 0]
[drop_rate: 0.1]
[max_drop: 50]
[skip_drop: 0.5]
[xgboost_dart_mode: 0]
[uniform_drop: 0]
[drop_seed: 4]
[top_rate: 0.2]
[other_rate: 0.1]
[min_data_per_group: 100]
[max_cat_threshold: 32]
[cat_l2: 10]
[cat_smooth: 10]
[max_cat_to_onehot: 4]
[top_k: 20]
[monotone_constraints: ]
[monotone_constraints_method: basic]
[monotone_penalty: 0]
[feature_contri: ]
[forcedsplits_filename: ]
[refit_decay_rate: 0.9]
[cegb_tradeoff: 1]
[cegb_penalty_split: 0]
[cegb_penalty_feature_lazy: ]
[cegb_penalty_feature_coupled: ]
[path_smooth: 0]
[interaction_constraints: ]
[verbosity: -1]
[saved_feature_importance_type: 0]
[use_quantized_grad: 0]
[num_grad_quant_bins: 4]
[quant_train_renew_leaf: 0]
[stochastic_rounding: 1]
[linear_tree: 0]
[max_bin: 255]
[max_bin_by_feature: ]
[min_data_in_bin: 3]
[bin_construct_sample_cnt: 200000]
[data_random_seed: 1]
[is_enable_sparse: 1]
[enable_bundle: 1]
[use_missing: 1]
[zero_as_missing: 0]
[feature_pre_filter: 1]
[pre_partition: 0]
[two_round: 0]
[header: 0]
[label_column: ]
[weight_column: ]
[group_column: ]
[ignore_column: ]
[categorical_feature: ]
[forcedbins_filename: ]
[precise_float_parser: 0]
[parser_config_file: ]
[objective_seed: 5]
[num_class: 1]
[is_unbalance: 1]
[scale_pos_weight: 1]
[sigmoid: 1]
[boost_from_average: 1]
[reg_sqrt: 0]
[alpha: 0.9]
[fair_c: 1]
[poisson_max_delta_step: 0.7]
[tweedie_variance_power: 1.5]
[lambdarank_truncation_level: 30]
[lambdarank_norm: 1]
[label_gain: ]
[lambdarank_position_bias_regularization: 0]
[eval_at: ]
[multi_error_top_k: 1]
[auc_mu_weights: ]
[num_machines: 1]
[local_listen_port: 12400]
[time_out: 120]
[machine_list_filename: ]
[machines: ]
[gpu_platform_id: -1]
[gpu_device_id: -1]
[gpu_use_dp: 0]
[num_gpu: 1]

end of parameters

pandas_categorical:[]
