tree
version=v4
num_class=1
num_tree_per_iteration=1
label_index=0
max_feature_idx=29
objective=binary sigmoid:1
feature_names=atr_pct vol_ratio ret_3 gap hl_ratio ret_1 ret_6 MACDs_12_26_9 EMA_50 STOCHk_14_3_3 BBL_20_2.0_2.0 close_pos MACDh_12_26_9 STOCHd_14_3_3 OBV ATRr_14 EMA_9 BBB_20_2.0_2.0 price_to_ema21 RSI_14 EMA_21 DMN_14 MACD_12_26_9 ADXR_14_2 ADX_14 BBP_20_2.0_2.0 BBU_20_2.0_2.0 BBM_20_2.0_2.0 STOCHh_14_3_3 DMP_14
feature_infos=[0.00036662379980360236:0.12740744596189579] [0:9.4452232241251561] [-0.46277910157804081:0.43524095249947781] [-0.2861239852621556:0.3776843631515644] [0:0.35052406666068253] [-0.22621625073737128:0.37647032906291877] [-0.61680174392590059:0.75985243269631142] [-106.42407332967447:72.623489984544989] [2.6450062310295683:4273.5085900511431] [0:99.999999999999986] [-0.26788101169132261:4231.0117401700118] [0:0.99999999998503863] [-46.984365603916835:40.190109880160463] [0.13334415557871729:99.801298802286865] [-1010784230:2535391217] [0.013298179014741748:68.280077153443614] [2.6246296786705727:4334.7385211978935] [0.07036057031120474:201.88426899403524] [0.50013204987152116:1.4309449129001945] [0.63137975215908249:97.064729024459098] [2.622566128075853:4310.0149736873846] [1.6552512072235337:97.906229735400643] [-116.65548888577837:84.803399338456074] [6.2615930738938035:91.378887313990603] [5.8952336786046722:91.795851219690078] [-0.55794477525887065:1.5603087513947957] [2.6456833111323568:4414.6885557816477] [2.6137499570846563:4316.8456054687504] [-32.459545498029385:32.631589552920161] [0.35309745940401926:85.502169494720377]
tree_sizes=6900 6984 7021

Tree=0
num_leaves=63
num_cat=0
split_feature=0 1 0 0 3 0 1 4 3 1 4 1 4 0 0 0 1 4 0 0 0 4 8 1 0 0 4 0 0 0 9 7 4 0 0 3 1 1 1 3 0 4 4 1 11 1 1 4 4 3 25 12 25 5 0 0 4 0 1 1 25 1
split_gain=110612 22262.1 15705.6 12260.1 7494.66 6075.46 3998.73 3787.25 2660.79 2601.94 3102.19 2442.35 2314.88 1751.71 1694.66 1625.01 1610.55 1544.69 1522.75 1130.52 1039.14 984.545 966.64 966.302 939.7 889.094 809.978 783.33 719.193 686.272 634.563 664.476 617.163 615.128 586.444 545.474 539.85 516.544 515.306 496.943 477.167 450.192 446.359 426.286 424.126 419.972 403.521 398.536 397.584 391.34 385.699 380.61 345.596 414.433 338.535 320.188 309.555 307.935 297.743 291.42 286.955 285.628
threshold=0.00924987302051186 0.98016969488706807 0.014510808295834622 0.0065264116687174393 0.0010627583317790585 0.0057432571727756504 0.95920038422591214 0.007731478680460209 -0.00086465072445903639 0.62287687814076975 0.0043123273658407851 0.63265948829113527 0.0055300340205287424 0.020827409961050928 0.0064477214896589878 0.0071931836743726963 1.2654870131259959 0.0097657721995991192 0.011634634468907589 0.0054177089771152457 0.0057935599811070613 0.0061195064476292759 30.128858717996167 0.51466606586741637 0.0075031893043640925 0.0048280852699716494 0.0060797867998999564 0.011458720387926015 0.0073860666581987509 0.0080087691531857269 62.843464787683331 -0.72690841479993518 0.0047874951827349124 0.0068614010513709228 0.0054686025575358165 -0.00072620006854427993 1.4311404427974941 1.4701986666550877 1.6016633587055658 -0.00057541423498981765 0.0081806711261307782 0.0033469578753873206 0.0035303358281423701 1.5385167964409396 0.91527439895579754 0.49483136317846704 0.80576544071827261 0.0061195064476292759 0.0039086056129972865 0.00047362571860628221 1.0054799013486957 -0.04069868737087054 1.014113897783625 -0.019661014382892857 0.0099384080988421161 0.0053381581278541526 0.0027257830768719804 0.016226079778925179 0.49072667784568363 0.51830203106053507 0.92676142441247977 1.3711184794470033
decision_type=2 2 2 2 2 2 2 2 2 2 2 2 2 2 2 2 2 2 2 2 2 2 2 2 2 2 2 2 2 2 2 2 2 2 2 2 2 2 2 2 2 2 2 2 2 2 2 2 2 2 2 2 2 2 2 2 2 2 2 2 2 2
left_child=1 3 6 9 5 8 18 16 -3 22 19 29 40 57 55 35 28 50 23 41 49 25 60 -2 -14 61 -25 -19 32 42 44 52 -7 -18 56 -9 -37 -17 -23 -39 46 -11 -5 -27 51 -20 -13 -22 59 -12 -8 -15 53 -32 -28 -6 -24 -4 -44 -36 -1 -10
right_child=2 4 13 11 14 7 17 15 21 10 20 12 24 30 -16 37 33 27 45 -21 47 38 34 26 -26 43 54 -29 -30 -31 31 -33 -34 -35 48 36 -38 39 -40 -41 -42 -43 58 -45 -46 -47 -48 -49 -50 -51 -52 -53 -54 -55 -56 -57 -58 -59 -60 -61 -62 -63
leaf_value=-1.3748098016783756 -1.3534992659167635 -1.4281127022874356 -1.2929324224246128 -1.367965108152065 -1.4468377642398447 -1.3292550061852844 -1.288290530199518 -1.3967155408346286 -1.3782809223772876 -1.3801625201171519 -1.4168009480782686 -1.3535754951807961 -1.3833782488685207 -1.2640460624767824 -1.3742184098193415 -1.3483004731469197 -1.3197094273549719 -1.3233786027609211 -1.3313498012866352 -1.3619486308012041 -1.3823605877386993 -1.4052667744734328 -1.4151042664370059 -1.3143165092261238 -1.359229637441012 -1.3515343582564299 -1.3476070053721165 -1.3020279957108114 -1.3182337677033631 -1.3661678806413993 -1.4132146757721677 -1.2710246804685836 -1.3581480084232447 -1.3012029608760574 -1.4099880159607401 -1.3810245691557657 -1.3397383764611359 -1.3500184686554837 -1.3579481325006189 -1.3119745711698616 -1.3245498352600522 -1.4031952916537591 -1.401485272755026 -1.3299556390014291 -1.2925239615226156 -1.3109944683620562 -1.3339199574602625 -1.4074239237199015 -1.4193276115154847 -1.4498733955635332 -1.3361633054204607 -1.2447802615149524 -1.4024623878933731 -1.2950803000585347 -1.3307500203655493 -1.4112963216619037 -1.4349591138531537 -1.2815112785825291 -1.3833538376862784 -1.384654765133124 -1.4556781832549692 -1.3574270732295985
leaf_weight=1797.0916701257229 5195.9576436281204 1419.0312942266464 9845.1812756359577 3165.4244818389416 1017.3858213722706 3938.6006703972816 12779.6421636343 1692.2160849273205 2940.634775608778 6723.2109214067459 5617.1244403123856 6615.1300809681416 6194.5104880928993 5843.3136247694492 4332.2953051328659 5246.7245483100414 8192.3332858979702 8511.9326206147671 3117.6577116250992 7816.1297961473465 3456.3680707812309 1476.5098672807217 3304.0171587467194 6218.6686070859432 11521.117065042257 5660.8157181143761 4342.0496217906475 8673.5813269615173 4968.5993581116199 8511.0241105556488 82.626462757587433 3931.4447563290596 3482.3468333780766 9935.8704258799553 2403.9016561210155 1680.5597483217716 1497.1421418786049 1270.0638763904572 942.714819252491 2648.0787254869938 3476.4848216772079 3099.5881867110729 3418.7215482294559 3842.077978938818 840.19380131363869 13535.206468820572 4314.0487761497498 2931.2009902596474 4218.915908485651 1063.8689054846764 435.06046324968338 4567.3687470853329 107.48149618506432 731.50475540757179 9483.731267541647 1680.2425145208836 4837.1535282433033 14734.299069821835 6704.7743763327599 2150.9946624040604 116.82884100079536 3718.0724976360798
leaf_count=8103 21738 7553 32086 13942 5706 15020 40744 8196 13415 30864 28928 27683 28741 16467 19495 21534 30048 31697 11989 33708 15983 7344 16930 22297 49208 23513 17775 29472 18112 37253 421 11498 14816 33636 12130 7737 5949 5246 4008 9400 13008 15319 16807 14693 2733 47844 16759 14676 21890 6016 1705 11528 530 2408 36383 8512 26252 45451 31106 10022 671 15778
internal_value=-1.34111 -1.366 -1.30254 -1.38083 -1.34456 -1.33923 -1.31652 -1.32895 -1.36212 -1.39879 -1.38982 -1.36434 -1.35557 -1.27769 -1.39359 -1.35044 -1.31906 -1.30272 -1.32654 -1.37614 -1.40828 -1.35708 -1.41343 -1.33428 -1.36767 -1.35263 -1.3293 -1.3126 -1.33296 -1.37725 -1.26487 -1.27998 -1.34281 -1.30957 -1.41724 -1.37378 -1.36157 -1.33804 -1.38683 -1.32431 -1.34068 -1.38743 -1.38435 -1.34281 -1.25835 -1.31481 -1.34582 -1.39386 -1.40827 -1.42207 -1.28987 -1.25559 -1.31819 -1.30707 -1.33604 -1.4247 -1.4269 -1.28609 -1.38948 -1.39802 -1.37975 -1.36664
internal_weight=288017 175040 112977 103458 71582.3 64552.4 72293.5 44552.5 19999.9 49536.4 30707.5 53921.2 32121.3 40683.4 7029.92 14034.8 30517.8 30400.2 41893.3 17638.9 13068.6 18580.8 18828.9 25240.4 17715.6 16161.6 20044.4 17185.5 12389.5 21799.9 16103.9 4853.06 7420.95 18128.2 16915 4869.92 3177.7 9164.87 2419.22 3918.14 14405.7 9822.8 13288.9 9502.89 11250.9 16652.9 10929.2 6387.57 8773.81 6680.99 13214.7 10410.7 921.613 814.131 13825.8 2697.63 8141.17 24579.5 10123.5 4554.9 1913.92 6658.71
internal_count=1150476 765710 384766 475999 289711 255998 261644 169694 86304 241492 145494 234507 135399 123122 33713 58062 111632 103618 158026 79891 65603 78751 95998 98193 77949 67399 76455 61169 47948 99108 45585 14857 29836 63684 87224 21882 13686 36180 11352 14646 57450 46183 61855 38206 30728 59833 44442 30659 44042 34944 42449 27995 3359 2829 54158 14218 43182 77537 47913 22152 8774 29193
is_linear=0
shrinkage=1


Tree=1
num_leaves=63
num_cat=0
split_feature=0 1 0 0 3 0 1 4 2 3 2 1 4 2 1 4 0 2 0 0 4 1 1 0 4 0 0 2 0 8 0 2 1 1 2 4 0 1 2 0 2 0 0 9 0 2 2 0 3 1 4 3 0 1 4 1 0 7 2 1 0 1
split_gain=82427.2 16803.2 12777.4 7616.3 6017.5 4781.75 3551.41 3229.14 2526.03 2259.96 2101.64 1977.21 1948.54 1671.56 1644.44 1545.18 1521.54 1306.47 1293.96 1257.75 1201.94 1133.29 1090.95 943.743 934.615 889.136 859.858 837.792 718.394 702.651 692.59 626.361 616.569 546.091 534.965 530.66 537.659 495.093 494.187 493.621 479.932 475.368 471.92 456.55 455.804 449.361 435.804 434.166 419.682 377.822 369.155 365.062 357.021 346.271 412.73 335.458 334.104 331.88 588.254 302.594 298.307 298.173
threshold=0.0088798563765109164 0.91533629978848807 0.013971979936179388 0.006474529742135463 0.0011315924363153762 0.0057432571727756504 0.71141999654804999 0.0074584937928839365 0.0074973139092689997 -0.00086465072445903639 0.012213289784923089 0.59424399189360411 0.004366808303956928 0.008306824253960789 0.53672556417403616 0.0047581647019278792 0.018425575958042381 0.014265138871299545 0.0064477214896589878 0.0070259225325961074 0.0093276076237239058 1.2281574789980854 1.2654870131259959 0.010115962256588227 0.0051945091541726459 0.010656916987368554 0.0053381581278541526 -0.017953075511455915 0.005365791755327854 30.128858717996167 0.0075031893043640925 -0.012179197074378255 1.2026405121723374 1.456864289785526 -0.0075602939530338689 0.0084958033455759408 0.0047519035236952643 1.4701986666550877 0.0063922352791802037 0.010308532194471162 0.017728233127689678 0.0069997186966011043 0.010308532194471162 55.081058883719386 0.0054686025575358165 -0.0075602939530338689 -0.0057687357362680705 0.02741124951162523 -0.00048872999131204442 1.4189092264513712 0.0046961982675950299 -0.00086465072445903639 0.0064477214896589878 0.51077446619741818 0.0050317850506742161 1.618930307586238 0.0049634680265213454 -0.90057478034119998 0.050780325578251968 1.5853459596272244 0.0043380430759023458 0.49483136317846704
decision_type=2 2 2 2 2 2 2 2 2 2 2 2 2 2 2 2 2 2 2 2 2 2 2 2 2 2 2 2 2 2 2 2 2 2 2 2 2 2 2 2 2 2 2 2 2 2 2 2 2 2 2 2 2 2 2 2 2 2 2 2 2 2
left_child=1 3 6 8 5 9 25 10 11 -3 22 29 26 14 -5 34 -4 20 56 33 27 24 31 59 38 40 46 -8 -14 -1 -17 -7 42 -9 -16 36 -23 -21 60 -19 53 50 -29 47 -31 -28 -13 -18 -35 -25 -33 -39 -24 -2 -55 -12 -6 58 -45 -22 -11 -27
right_child=2 4 16 13 18 7 17 19 -10 21 55 12 28 -15 15 30 43 39 -20 37 23 35 52 49 -26 61 45 32 -30 44 -32 41 -34 48 -36 -37 -38 51 -40 -41 -42 -43 -44 57 -46 -47 -48 -49 -50 -51 -52 -53 -54 54 -56 -57 -58 -59 -60 -61 -62 -63
leaf_value=0.057405127586270213 0.073697567560179811 0.010946459729145165 0.13013821037958173 0.052252153520310179 -0.017506390647280681 0.053957213478722288 0.085061640329985727 0.043870979153109835 -0.0011526234101384165 0.050024762321927568 0.034956233234027495 0.0072794794036237691 0.01036646352052171 0.042743865039271745 0.057451047867760952 0.05543146511468211 0.14720324438486962 0.079052513470120656 0.056951651269068565 0.078659835504223993 0.086286181631252859 0.070421415985639155 0.10539405749430218 0.11033981824425723 0.027455098288404652 0.090213943385565154 0.025211772484800561 0.11237398382046833 0.040022042602294722 0.013031803036521942 0.074866518938340218 0.10088849182104004 0.1380890032118072 0.045973230909219703 0.093190993044499279 0.031851537270941359 0.091803810581500861 0.076526369755992085 0.023429734421397452 0.10466045702128138 0.036642300382564968 0.1093420679958346 0.13002073653118271 0.13099153667118432 0.031657127375562387 0.07419045034867594 0.051493759805693574 0.16529790701083671 0.092609427375890355 0.12714273510934107 0.078634507562415606 0.11027886000201521 0.12073156067209703 0.10945883372290033 0.084486094097094469 0.098581926132407682 0.022957503880276064 0.14367322096995347 0.045907004814591944 0.11171315133483217 0.077107277857436249 0.1056901514013299
leaf_weight=1599.7723674178123 4409.0964974910021 1577.8976217210293 24453.149419665337 10169.106842160225 658.47322335839272 781.5051670819521 1243.769982740283 3097.028582662344 3927.3077181577682 1279.3808371573687 1205.1731160879135 597.23304156959057 2925.1560379266739 6719.2319702655077 1161.6565823107958 8015.8452359139919 9935.1523931324482 2813.1861413121223 4303.2995928823948 6372.1515172123909 4718.6395839452744 4599.1882053017616 5570.9284336417913 10803.864767953753 1861.5751914232969 4482.8719869852066 499.58635878562927 7608.17176656425 6765.184405580163 6594.7581375092268 10706.976574912667 4303.1625977605581 8339.6907530725002 732.4206403195858 10610.566174641252 505.43987706303596 8148.8754766881466 1102.6904211044312 583.54271806776524 5684.2772342860699 531.68805958330631 6961.907885119319 7546.4657106995583 1537.3851546645164 6544.679566681385 7477.0200593173504 8339.6774030029774 4975.1651642769575 1413.2302207499743 4846.1005090624094 3286.950801178813 2929.2273650020361 11897.063534870744 2227.7248040735722 6430.2634044885635 250.16597136855125 2264.5090622901917 7977.4652128517628 234.07320237159729 1555.8732563555241 4953.6017283946276 10179.542927846313
leaf_count=7018 17882 8349 72202 45546 3824 3363 4602 14312 21128 5772 5495 3118 15455 30692 4988 35390 25935 10902 18834 25244 17891 18984 19130 36054 9140 16760 2419 25397 32163 34680 43338 15330 23636 3376 39779 2418 30421 4412 2844 19403 2428 23758 22755 4497 32085 30605 37752 11447 5223 14855 13164 9790 37457 7559 24618 874 11492 21380 1025 5232 20033 34821
internal_value=0.0890602 0.0663595 0.118742 0.0518345 0.0830486 0.0873339 0.10683 0.0960924 0.0371683 0.0687421 0.104688 0.0408085 0.0489473 0.0658466 0.069664 0.0754704 0.138976 0.114215 0.0395141 0.0772729 0.117498 0.0729003 0.107297 0.108974 0.0588541 0.0924175 0.0591898 0.125053 0.0310701 0.0261183 0.0665457 0.0975643 0.12717 0.0573027 0.0896643 0.0820974 0.0840896 0.0873359 0.067429 0.0961826 0.0832085 0.0999062 0.121161 0.14774 0.022309 0.0711228 0.048539 0.153241 0.0766901 0.115543 0.0912513 0.101048 0.11584 0.0851033 0.0909117 0.0458932 0.013842 0.139326 0.119749 0.0925912 0.0715483 0.100958
internal_weight=305827 173293 132534 92653.8 80639.4 73413.1 83421.2 49903.6 45270.4 23509.5 34256.9 41343.1 26603.9 47383.4 40664.2 30495 49112.4 55160 7226.28 15646.7 46662.6 21931.6 32801.5 21924.5 8678.1 28261.2 16913.5 24738.1 9690.34 14739.2 18722.8 15333.5 23494.3 5242.68 11772.2 13253.5 12748.1 10404.1 6816.53 8497.46 13598.8 14552 15154.6 24659.2 13139.4 7976.61 8936.91 14910.3 2145.65 15650 7590.11 4031.92 17468 13067.1 8657.99 1455.34 2922.98 9748.92 1771.46 6274.51 6232.98 14662.4
internal_count=1150476 729195 421281 416156 313039 278889 284795 180928 216423 97961 118571 195295 121512 199733 169041 123495 136486 180727 34150 62357 150422 89612 112202 74032 37789 104068 73894 76390 47618 73783 78728 55615 71788 22911 44767 51823 49405 39446 28649 30305 52487 52252 48152 64284 66765 33024 40870 37382 8599 50909 28494 14202 56587 50059 32177 6369 15316 26902 5522 23123 25805 51581
is_linear=0
shrinkage=0.05


Tree=2
num_leaves=63
num_cat=0
split_feature=0 1 0 0 3 0 3 2 1 1 4 4 1 4 2 0 0 0 2 2 28 0 4 0 28 3 0 8 1 3 2 0 2 1 28 0 2 0 4 2 2 28 0 2 1 4 4 1 2 2 28 28 1 0 4 1 28 1 4 4 0 4
split_gain=63843.8 13914.8 8623.31 7729.99 4636.55 3441.8 2787.85 2553.76 2463.89 2189.96 1953.93 1585.97 1501.5 1627.96 1443.06 1121.6 1115.6 1030.49 969.137 934.012 834.837 886.018 830.605 813.232 810.266 735.96 727.255 690.006 677.951 658.931 638.4 602.333 592.6 572.084 537.171 514.649 470.427 462.132 476.623 443.514 411.401 463.329 391.368 388.347 386.45 384.971 381.847 377.989 376.59 356.592 338.182 327.273 323.47 323.345 322.355 316.491 313.997 313.1 305.369 294.772 283.112 280.489
threshold=0.0091033289235105067 0.98568745707273964 0.014737244396742654 0.0067033296281094968 0.0010627583317790585 0.0065264116687174393 -0.0011628717643153731 0.0070654131249827676 0.71141999654804999 0.64888052847002065 0.0047581647019278792 0.0068954911174046105 0.54737015054581051 0.0055300340205287424 0.010315016788910782 0.0049634680265213454 0.0064477214896589878 0.0056699053538257467 0.012525427705071481 0.014265138871299545 11.296976191945932 0.022396305624716156 0.0086385848281097348 0.011732088365957712 -13.502927526257624 0.0014098228344117125 0.0057180907235500804 30.128858717996167 1.2108053986893379 -0.00086465072445903639 0.017106802437868111 0.0058908662333911595 0.0098684305806918688 1.5102049126910582 -6.9176642214975947 0.0075031893043640925 -0.0077237843449174939 0.010656916987368554 0.0066666666665481491 -0.0090229975442716031 0.015558104685241105 -6.6399206582200625 0.0056699053538257467 -0.015526888159960504 1.3485812223407287 0.0037046346798444928 0.013896773815974458 0.75533146786987004 -0.0075602939530338689 0.015558104685241105 5.6629835902329981 -6.6399206582200625 0.46921271759421118 0.010656916987368554 0.0046961982675950299 1.4834353202550183 -11.087210483365872 0.59424399189360411 0.0030869832075817627 0.005638302079521409 0.0037352960149117363 0.008566193858535057
decision_type=2 2 2 2 2 2 2 2 2 2 2 2 2 2 2 2 2 2 2 2 2 2 2 2 2 2 2 2 2 2 2 2 2 2 2 2 2 2 2 2 2 2 2 2 2 2 2 2 2 2 2 2 2 2 2 2 2 2 2 2 2 2
left_child=1 3 8 7 5 6 -3 9 23 27 17 30 50 18 15 59 -6 36 34 24 21 51 33 40 -10 28 -12 56 37 -13 43 45 44 39 -14 -15 -11 38 -26 -17 41 -2 -9 -7 -31 52 -30 -36 -19 -37 -5 -4 -29 -21 -41 -16 -1 -43 -38 -8 -58 -28
right_child=2 4 20 12 16 11 14 42 19 10 26 29 13 35 55 22 -18 48 -20 53 -22 -23 -24 -25 25 -27 61 31 46 32 -32 -33 -34 -35 47 49 58 -39 -40 54 -42 57 -44 -45 -46 -47 -48 -49 -50 -51 -52 -53 -54 -55 -56 -57 60 -59 -60 -61 -62 -63
leaf_value=-0.023123430121589645 0.062464561974050675 0.016803915923911832 0.10861388560599959 0.052583600829351124 0.014079400407918694 0.051459771442483461 0.064724760138824985 -0.009765738377834168 0.08086781326224228 -0.00054766434583583881 0.015097594631061495 0.061647682849290841 0.058398503945828933 0.047486553067001051 0.0045534555377348138 0.039197116452144631 0.054752798343704792 0.033760686795835763 0.029224495167713582 0.075772774610018523 0.098881080786201059 0.1356678190580177 0.045847623071608508 0.096092340882265204 0.10920468984882242 0.086461930496735145 0.048553948744029927 0.01070898565475922 0.12217436954222892 0.080664219010322169 0.034381829632139198 0.037436498090619351 0.062536396371985145 0.094536403182014228 0.078502398348906113 0.066462797359625014 0.05981628002343839 0.11036866008058843 0.088323887283578553 0.086550929841736735 0.050450654098549111 0.078717460176598086 0.016505490834274841 0.10410578849053415 0.10100055452250351 0.0071529675593994526 0.10505644688325029 0.094243256463955857 0.076824715686255082 0.035515209322397129 0.031457069042784398 0.12298135976403933 0.032157888032562601 0.09543925631661021 0.068953691024740013 0.055295268092338735 -0.00097142530886252024 0.093791206591519516 0.043500069212267491 0.035605745947809062 0.065236038603910945 0.02187293479836537
leaf_weight=120.93970432877541 2796.9885977804661 2262.4350316524506 4750.9467549920082 10035.48637484014 2720.9722525626421 356.82492381334305 8241.7379764914513 2341.3614831268787 2996.85994130373 444.86680494248867 3970.4677928090096 3561.6000745892525 2155.8477669656277 6659.2800907641649 841.62571385502815 700.5485303401947 4431.7791159152985 548.20535588264465 921.54617547988892 3143.4992845207453 3102.3363615125418 14790.285265639424 1453.9648969471455 11492.364486530423 4649.0314446538687 3750.0449188351631 4590.3080348372459 2531.1252665221691 11972.799682214856 4322.0824736207724 343.51839102804661 7208.7744896411896 2145.7178864628077 8898.0047791451216 9220.9868215322495 13350.219954192638 5877.604329302907 14780.236893072724 6630.5979110151529 7208.0389102995396 1170.583671361208 8672.5622846484184 3593.2693210542202 19130.625179678202 5083.9380630105734 4291.1191899180412 4475.6539039611816 6503.8528046607971 6865.3628931045532 1000.5651071071625 2334.9688160270452 23916.781633347273 5753.1302227824926 6236.5655220746994 4073.050517514348 484.04594796895981 176.15448679029942 5715.082039937377 5599.7370759248734 971.55797861516476 1936.5587452203035 1254.1649447530508
leaf_count=655 10751 11328 13318 42673 14078 1414 32586 12933 10202 2328 20303 14172 8610 28923 4169 3016 18547 2488 4178 11346 9174 33813 6314 36691 13716 12473 20126 13150 31807 15676 1496 33180 8242 29221 33986 52144 24319 42939 22287 25003 4774 31358 17895 58240 15946 22480 13443 21779 25720 4469 10727 61869 27501 19788 15700 1922 893 18901 24966 4392 7843 6095
internal_value=0.0803386 0.0613814 0.106522 0.0499008 0.0776269 0.0815408 0.0704902 0.0371889 0.0973564 0.0407899 0.0497797 0.0926517 0.0638113 0.0685391 0.0741851 0.0763326 0.0392803 0.0590025 0.079227 0.103309 0.123939 0.125728 0.0823879 0.085662 0.106063 0.107695 0.0316104 0.0288878 0.109569 0.08045 0.101951 0.0259137 0.0862471 0.0849324 0.081804 0.0589743 0.0499003 0.104552 0.0969302 0.0778002 0.0791315 0.0810852 0.00614083 0.103142 0.091656 0.0193083 0.117517 0.0850129 0.0736403 0.0643051 0.0485959 0.1206 0.0256045 0.0888485 0.0801974 0.0230809 0.0552305 0.0847051 0.0518557 0.0616541 0.0597158 0.0428285
internal_weight=321561 186518 135043 109286 77232.1 70079.3 35135 57103.2 88482.9 51168.5 29150.7 34944.3 52182.8 39812.3 32872.6 31546.9 7152.75 19335.8 18802.2 58635.3 46560.4 43458 22333.6 29847.6 49255.2 46258.4 9814.94 22017.8 42508.3 15113.3 19831 19784.1 11551.7 20879.6 17880.7 21010.1 11922.2 26059.9 11279.6 11981.6 18355.2 17184.6 5934.63 19487.5 9406.02 12575.4 16448.5 15724.8 7413.57 14350.8 12370.5 28667.7 8284.26 9380.06 11281.1 1325.67 2233.65 14387.6 11477.3 9213.3 2112.71 5844.47
internal_count=1150476 751826 398650 470364 281462 248837 133651 262875 280476 232047 126345 115186 207489 154089 122323 116232 32625 79821 68553 178001 118174 109000 79254 102475 146867 136665 46524 105702 124192 54036 61150 96311 39864 72940 64375 85536 51613 78942 36003 43719 65784 61010 30828 59654 31622 63131 45250 55765 28208 56613 53400 75187 40651 31134 40703 6091 9391 50259 49285 36978 8736 26221
is_linear=0
shrinkage=0.05


end of trees

feature_importances:
atr_pct=58
vol_ratio=40
hl_ratio=31
ret_3=24
gap=13
STOCHh_14_3_3=7
EMA_50=3
BBP_20_2.0_2.0=3
MACDs_12_26_9=2
STOCHk_14_3_3=2
ret_1=1
close_pos=1
MACDh_12_26_9=1

parameters:
[boosting: gbdt]
[objective: binary]
[metric: binary_logloss]
[tree_learner: serial]
[device_type: cpu]
[data_sample_strategy: bagging]
[data: ]
[valid: ]
[num_iterations: 1000]
[learning_rate: 0.05]
[num_leaves: 63]
[num_threads: -1]
[seed: 0]
[deterministic: 0]
[force_col_wise: 0]
[force_row_wise: 0]
[histogram_pool_size: -1]
[max_depth: -1]
[min_data_in_leaf: 20]
[min_sum_hessian_in_leaf: 0.001]
[bagging_fraction: 0.8]
[pos_bagging_fraction: 1]
[neg_bagging_fraction: 1]
[bagging_freq: 5]
[bagging_seed: 3]
[bagging_by_query: 0]
[feature_fraction: 0.8]
[feature_fraction_bynode: 1]
[feature_fraction_seed: 2]
[extra_trees: 0]
[extra_seed: 6]
[early_stopping_round: 0]
[early_stopping_min_delta: 0]
[first_metric_only: 0]
[max_delta_step: 0]
[lambda_l1: 0]
[lambda_l2: 0]
[linear_lambda: 0]
[min_gain_to_split: 0]
[drop_rate: 0.1]
[max_drop: 50]
[skip_drop: 0.5]
[xgboost_dart_mode: 0]
[uniform_drop: 0]
[drop_seed: 4]
[top_rate: 0.2]
[other_rate: 0.1]
[min_data_per_group: 100]
[max_cat_threshold: 32]
[cat_l2: 10]
[cat_smooth: 10]
[max_cat_to_onehot: 4]
[top_k: 20]
[monotone_constraints: ]
[monotone_constraints_method: basic]
[monotone_penalty: 0]
[feature_contri: ]
[forcedsplits_filename: ]
[refit_decay_rate: 0.9]
[cegb_tradeoff: 1]
[cegb_penalty_split: 0]
[cegb_penalty_feature_lazy: ]
[cegb_penalty_feature_coupled: ]
[path_smooth: 0]
[interaction_constraints: ]
[verbosity: -1]
[saved_feature_importance_type: 0]
[use_quantized_grad: 0]
[num_grad_quant_bins: 4]
[quant_train_renew_leaf: 0]
[stochastic_rounding: 1]
[linear_tree: 0]
[max_bin: 255]
[max_bin_by_feature: ]
[min_data_in_bin: 3]
[bin_construct_sample_cnt: 200000]
[data_random_seed: 1]
[is_enable_sparse: 1]
[enable_bundle: 1]
[use_missing: 1]
[zero_as_missing: 0]
[feature_pre_filter: 1]
[pre_partition: 0]
[two_round: 0]
[header: 0]
[label_column: ]
[weight_column: ]
[group_column: ]
[ignore_column: ]
[categorical_feature: ]
[forcedbins_filename: ]
[precise_float_parser: 0]
[parser_config_file: ]
[objective_seed: 5]
[num_class: 1]
[is_unbalance: 1]
[scale_pos_weight: 1]
[sigmoid: 1]
[boost_from_average: 1]
[reg_sqrt: 0]
[alpha: 0.9]
[fair_c: 1]
[poisson_max_delta_step: 0.7]
[tweedie_variance_power: 1.5]
[lambdarank_truncation_level: 30]
[lambdarank_norm: 1]
[label_gain: ]
[lambdarank_position_bias_regularization: 0]
[eval_at: ]
[multi_error_top_k: 1]
[auc_mu_weights: ]
[num_machines: 1]
[local_listen_port: 12400]
[time_out: 120]
[machine_list_filename: ]
[machines: ]
[gpu_platform_id: -1]
[gpu_device_id: -1]
[gpu_use_dp: 0]
[num_gpu: 1]

end of parameters

pandas_categorical:[]
