tree
version=v4
num_class=1
num_tree_per_iteration=1
label_index=0
max_feature_idx=29
objective=binary sigmoid:1
feature_names=atr_pct BBB_20_2.0_2.0 vol_ratio close_pos ret_1 hl_ratio ATRr_14 ret_3 gap EMA_21 BBU_20_2.0_2.0 EMA_9 STOCHh_14_3_3 ret_6 price_to_ema21 ADX_14 BBL_20_2.0_2.0 OBV EMA_50 DMN_14 BBP_20_2.0_2.0 DMP_14 BBM_20_2.0_2.0 STOCHd_14_3_3 MACD_12_26_9 ADXR_14_2 STOCHk_14_3_3 MACDs_12_26_9 MACDh_12_26_9 RSI_14
feature_infos=[0.0004433572808284232:2.6395707915273259] [1.4802973073451453e-12:533.13057698416253] [0:10.487353543261044] [0:0.99999999999965794] [-0.66666667484288655:3.2300468285405604] [0:1.57513179319972] [0.00036368808397336182:3326.8354613864872] [-0.82889055085590668:4.7641513805111249] [-0.62551440265876945:3.3661970364774971] [0.013405182914133755:70477.180473921224] [0.015000000596046448:72900.747150888172] [0.012919228402911509:69675.778282407889] [-33.333333333333329:33.333333333332348] [-0.91514285859607514:5.0228307012576092] [0.08124179496209194:3.3005892584754628] [5.2892562234333997:89.480991364708999] [-2233.5420164198367:67602.664567861852] [-1406089836:2973986401] [0.01385389992054995:72483.205476836127] [0.62886570597211844:97.906229735400643] [-0.56213228931187742:1.5617231092720334] [0.35309745940401926:98.807805553003689] [0.013250000216066838:70251.705859375012] [0:99.999999999999986] [-5378.8277849981787:3261.6158045909069] [5.3818423039240626:89.787573873733976] [0:99.999999999999986] [-5808.665241825157:3146.1248064891529] [-974.64744095550168:1084.2146466173547] [0.63137975215908249:97.467300333530588]
tree_sizes=6898 7032 7025 6988 7054

Tree=0
num_leaves=63
num_cat=0
split_feature=0 0 0 0 4 0 3 0 0 11 3 0 0 11 0 3 5 7 5 7 3 5 7 0 5 5 7 4 1 8 5 12 12 3 12 12 13 3 0 3 8 1 7 12 3 12 4 23 12 5 12 17 14 4 1 5 12 4 0 1 20 8
split_gain=142050 30527 17681 5485.65 4138.61 3628.73 1918.87 1711.01 1276.75 1036.08 976.731 835.651 758.219 650.284 510.648 466.911 432.896 432.436 431.644 415.2 377.973 386.943 429.868 376.158 343.604 336.807 311.042 289.274 288.536 274.216 272.897 265.164 232.909 220.704 219.238 217.796 213.5 219.05 212.094 184.809 176.306 175.441 173.815 171.803 171.16 166.035 162.004 160.483 160.199 158.924 154.385 150.342 150.191 145.965 139.535 137.133 134.972 134.474 132.665 130.179 120.39 120.383
threshold=0.010066429125327984 0.0053732645841117347 0.016534878592285827 0.0072690160341604285 -0.016110815903586369 0.0037008640897693052 0.98076516229818167 0.012362724671228479 0.024448998013271283 24.682939942257764 0.01316000922166635 0.0085838376903237864 0.0063703294428024805 27.828115378793253 0.004268908327375723 0.19847178675330149 0.0072314224631895461 0.0062442776716893364 0.0075633776847622266 0.0052950960466401362 0.48979766453670059 0.0024966396068385995 -0.0083858692982490806 0.026460068860887701 0.0064747092151158951 0.00526083477843085 0.012901407047250514 -0.039549133058368595 14.11581081463364 0.025315780151175912 0.030062230689602256 9.2027871974759439 10.78894947679577 0.15384586991909457 3.4111912071485766 7.7935446538267463 0.018434628411306945 0.16722748962561049 0.014129304233818066 0.10638484732954166 -0.0076545104828233202 1.3353652627669488 0.0032149666396307235 -9.2901829239094997 0.96913867719774716 -12.009640935832493 -0.0085034068312214699 89.281015594260694 -10.866927730030577 0.0094637216437826032 6.3905918324430582 38659019.500000007 0.92598590036858675 0.0028368451890594675 13.287104187694329 0.028901752154363327 -8.1783495588611803 -0.010226433304115766 0.00250790964729336 10.983272317515702 0.29075787066430586 0.0018066379232918766
decision_type=2 2 2 2 2 2 2 2 2 2 2 2 2 2 2 2 2 2 2 2 2 2 2 2 2 2 2 2 2 2 2 2 2 2 2 2 2 2 2 2 2 2 2 2 2 2 2 2 2 2 2 2 2 2 2 2 2 2 2 2 2 2
left_child=1 5 7 12 10 13 8 31 34 14 27 18 17 41 -7 40 35 24 32 25 21 22 -10 -12 48 43 36 -4 30 60 -8 33 47 -2 46 45 37 -13 -17 55 -9 -1 51 -11 -40 -14 -6 -5 -3 -39 -50 -16 -25 -42 -22 -23 -35 -51 -15 -41 -24 -58
right_child=2 3 4 11 6 9 28 15 20 19 23 26 16 58 42 38 -18 -19 -20 -21 54 39 29 52 -26 -27 -28 -29 -30 -31 -32 -33 -34 56 -36 -37 -38 49 44 59 53 -43 -44 -45 -46 -47 -48 -49 50 57 -52 -53 -54 -55 -56 -57 61 -59 -60 -61 -62 -63
leaf_value=-1.1344379526803532 -1.0096758454155488 -1.0774222096201662 -0.93968871867536108 -1.0364646063999079 -0.98103343730992487 -1.1135399542772109 -1.0029640359849392 -0.97841662252473616 -0.96921997408551586 -1.0915525952660816 -0.98381480525995468 -1.0215809594210419 -1.0672620353697435 -1.1473750272971073 -1.0879072082545695 -1.010872600281306 -1.0643060879508468 -1.0824114618295007 -1.0490390965139156 -1.1007499707410733 -0.98796669262081249 -0.97104054787292515 -0.97118147689163992 -0.95809179774313113 -1.0763903772926431 -1.0936765566649871 -1.0424082769601641 -0.95852527865481196 -0.99293974956831599 -1.0354250611820159 -1.0230113804587757 -1.0286970996639786 -1.0552404868312 -1.0275894696258137 -0.99496054050117044 -1.0629704700600151 -1.0131366105540751 -1.0288131747443405 -1.0015781751871138 -0.98329844504070119 -0.99705125325285104 -1.1194315569147357 -1.1043912322937679 -1.0660278012730973 -1.014277714344221 -1.0436043372604569 -0.98946883560725296 -1.0211112978551498 -1.0548832136245054 -1.0142570609648065 -1.0749501069914769 -1.0325971821503603 -0.97103414188482273 -1.0148773925489063 -0.98057098420251521 -0.95735066229925803 -1.0156359737694076 -1.0419293844896953 -1.0826129736235754 -0.97353012658248783 -1.0000451265635921 -1.0261002931688936
leaf_weight=5806.5309703946114 10243.19477981329 1012.7972598075867 2736.8409852385521 18041.387852728367 7083.0042452812195 3896.1760370731354 9735.5017060637474 1177.763801753521 1661.8069306612015 730.89277559518814 5402.3637699484825 7842.736711025238 788.74568170309067 86.087457239627838 5325.2389810085297 18804.63515406847 4980.7612851858139 3131.1687902808189 10001.192742466927 1585.8678660988808 10453.203761458397 7314.7714877128601 456.44167399406433 2912.6637015342712 3330.3758229017258 1621.094072163105 3878.545943915844 7984.3385933041573 5931.3929559588432 489.442442715168 2056.0748733878136 4573.5158855319023 1533.1293112039566 3398.7266218066216 15266.202673971653 1937.045117855072 2426.0211068987846 14224.701568841934 17359.351480305195 4730.033877491951 14329.174166798592 2930.7387316226959 1843.5722952485085 6724.8376668691635 3131.8416934013367 12418.420620083809 28979.893868565559 1879.3150046467781 10629.935470640659 486.8539029955864 1053.475372672081 125.7623553276062 9729.2866408228874 1248.4015072584152 16358.15418112278 2439.3274708986282 21648.027479946613 4468.5668061971664 971.15805464982986 12227.768772065639 1732.5681250095367 3148.0913041234016
leaf_count=29697 35505 4417 6956 68920 21871 18851 32882 3596 4872 3324 16880 28418 3334 455 23962 65478 20859 13862 39867 7405 33235 21621 1350 8111 14479 7418 15121 22280 19248 1863 7489 17002 6237 12585 49948 8078 8520 52902 58314 14747 47278 14408 8697 28316 11046 48611 92714 6798 43194 1717 4560 474 28757 4413 50411 6769 76741 17393 4302 36545 5785 11595
internal_value=-1.01531 -1.05663 -0.993301 -1.04355 -0.982793 -1.09963 -0.986675 -1.00981 -0.984198 -1.0883 -0.96567 -1.03462 -1.0583 -1.12492 -1.09893 -1.00406 -1.05152 -1.06542 -1.04046 -1.07715 -0.979105 -0.97535 -0.989197 -0.972771 -1.0621 -1.07302 -1.0291 -0.953717 -1.00193 -1.00159 -1.00646 -1.01732 -1.03646 -1.01596 -0.989938 -1.04731 -1.02735 -1.02862 -1.00704 -0.973101 -0.99707 -1.1294 -1.09112 -1.06853 -1.00352 -1.04502 -0.987812 -1.03502 -1.05835 -1.0315 -1.05669 -1.08663 -0.968052 -0.99848 -0.983454 -0.967617 -1.01825 -1.03921 -1.08789 -0.976255 -0.994027 -1.01696
internal_weight=390457 135713 254744 104065 155681 31648 126916 99062.7 109193 21853.4 28765.5 64782.5 39282.7 9794.52 11190.7 56051.2 20125 19157.8 31455 10662.7 57863.5 31052.2 4340.26 18044.3 16026.6 9076.82 33327.4 10721.2 17723 2678.45 11791.6 43011.6 21453.8 38438 51329.1 15144.2 29448.9 27022.9 39295.8 26711.9 16755.3 8737.27 7294.57 7455.73 20491.2 13207.2 36062.9 19920.7 12696.2 19180.1 11683.4 5451 12642 15577.6 26811.4 9754.1 28194.8 4955.42 1057.25 16957.8 2189.01 24796.1
internal_count=1382483 554596 827887 407287 484334 147309 401350 343553 341731 98447 82984 245893 161394 48862 51984 190125 80882 80512 121822 46463 177198 93552 13870 53748 66650 39058 124071 29236 59619 8998 40371 153428 81955 136426 164533 60023 108950 100430 134838 79682 55287 44105 33133 31640 69360 51945 114585 75718 52171 72012 47754 24436 36868 51691 83646 28390 100921 19110 4757 51292 7135 88336
is_linear=0
shrinkage=1


Tree=1
num_leaves=63
num_cat=0
split_feature=0 0 0 2 4 2 0 0 0 0 3 0 5 3 11 5 2 3 0 2 10 0 5 5 4 3 2 5 0 2 3 10 5 2 0 2 0 1 2 8 8 2 14 5 8 2 2 3 7 5 0 8 2 8 11 0 5 8 5 0 3 5
split_gain=117803 22670.3 19145.2 4869.4 3468.24 2950.9 2702.08 2160.62 1814.62 1782.96 1387.49 1146.09 1051.94 981.009 960.495 874.633 571.015 491.797 484.371 469.524 442.15 418.659 390.708 387.315 386.27 378.194 451.313 358.682 346.103 330.5 328.833 311.325 305.796 283.985 279.528 261.841 252.735 249.838 247.312 231.217 229.663 221.095 215.156 294.657 246.653 203.816 203.109 199.597 186.476 184.884 178.916 176.875 171.414 164.987 158.029 155.553 156.821 154.452 154.436 149.913 149.453 148.202
threshold=0.0091996473767760305 0.0051433443374664213 0.01566363064104017 0.91441461974637483 -0.010853564702949623 0.99966273069425182 0.0035772991574058222 0.0070930019661587639 0.006668574987257962 0.012083561326163365 0.98076516229818167 0.02341115230254618 0.008631282093044066 0.019262797607730125 24.682939942257764 0.0066522809045504389 1.163223347910759 1.0000000180025095e-35 0.029201407911145508 0.63102272376383262 27.882475129116155 0.004268908327375723 0.003586733687457547 0.014543951603659499 -0.030042873733243488 0.019262797607730125 0.70268340197643064 0.0035305829635016456 0.011547024513617303 1.468503935714929 0.019262797607730125 24.295895580365709 0.0062972411464794695 0.51217782048293514 0.011379081731864917 0.62273992351687235 0.0058547774587928165 11.51821744587726 1.453354714688561 0.00076163204825069461 0.0013754053574838035 1.453354714688561 0.97254458749834949 0.0023419739871292302 0.025315780151175912 1.5827693993838676 1.1345963954969422 0.45205390434096587 0.018518500326429325 0.029449630039113561 0.0064330487673351488 -0.0051509826372009284 0.69860852007364638 -0.0076545104828233202 11.590595168910218 0.007922773989311056 0.0053715684152930822 -0.0010513437771608213 0.012970271732836663 0.010360615713924796 0.24999998731859138 0.008631282093044066
decision_type=2 2 2 2 2 2 2 2 2 2 2 2 2 2 2 2 2 2 2 2 2 2 2 2 2 2 2 2 2 2 2 2 2 2 2 2 2 2 2 2 2 2 2 2 2 2 2 2 2 2 2 2 2 2 2 2 2 2 2 2 2 2
left_child=1 6 5 7 13 9 20 27 15 25 11 -6 29 24 21 31 22 -9 -15 54 -1 -8 52 34 -4 51 59 35 -25 48 53 -5 -21 -32 41 50 -29 49 -14 45 57 -7 60 44 -44 -17 -33 -45 55 -12 -3 -2 -16 -11 -19 56 -10 -18 -40 -27 -13 -28
right_child=2 3 4 8 10 23 14 17 12 30 37 42 38 18 16 39 40 19 -20 32 -22 -23 -24 28 -26 26 61 36 -30 -31 33 46 -34 -35 -36 -37 -38 -39 58 -41 -42 -43 43 47 -46 -47 -48 -49 -50 -51 -52 -53 -54 -55 -56 -57 -58 -59 -60 -61 -62 -63
leaf_value=-0.049061178723971671 0.083119746764124938 0.0029831949404142974 0.12080916141917888 0.022123015679657968 0.08020936466069005 0.063743340328742668 -0.032765625042308948 0.044073513369668194 0.054944901341452003 0.099472342057328744 0.068658693092673945 0.10196624338875937 0.028180224535619927 0.087092765426761587 -0.0073519623773849636 0.0042784675991919393 -0.016613341511133764 0.033723312441271601 0.10018408182072465 0.04081166362511638 -0.01035947833638925 -0.012647926412094033 -0.023771994028798905 0.052379235409812847 0.10422926676949869 0.035168122308602973 0.057738627655022107 -0.0078153966472142272 0.070001779624297586 0.065790062609474328 0.053264350751545855 0.029464254443735384 0.024697078638525133 0.064336208167033074 0.079929808225033996 0.02807502316282472 0.0072414564250318616 0.077313279612887115 0.053852316923253131 -0.010908858675849731 -0.031443730387207033 0.076576896211816833 0.080608827428969618 0.094242356393026555 0.044929887879227713 0.031564968916133494 0.048525882154100648 0.086911430164994308 0.010102737002815844 0.050219787272251182 0.02318186958769786 0.055824670635560528 0.014252922114227984 0.071288079608833807 0.017107841728163105 0.059528329765108023 0.0378548190362957 0.028754577113682667 0.034252424741011547 0.044184720811655989 0.091848614065878409 0.046783563184395575
leaf_weight=7676.6719963103533 668.01624839007854 3441.5302331000566 5119.4513867348433 2691.0502196401358 51334.413033261895 6983.7853516340256 4653.2128704637289 4422.4878178834915 2954.3598884046078 576.11971962451935 8779.8125868141651 5607.9286347180605 4483.3417129069567 13305.465747877955 2006.545529410243 1610.2111509293318 205.19711899757385 1644.7330241650343 15066.375381067395 6175.6929131895304 816.47902411222458 5821.4476235359907 2282.6836093366146 3977.779491007328 11194.380031555891 8166.6990643888712 6527.0392506271601 3836.9396761804819 9300.735049366951 7295.7461864501238 8284.6424778848886 2060.7607465833426 5625.8106771409512 19245.415753766894 14435.62107899785 2996.1501431018114 10184.933754086494 8633.1885572522879 2276.1216196715832 1131.2210597097874 195.91498129069805 6460.6354027241468 2772.8477936983109 15357.991481095552 586.93106918036938 1190.2044415473938 4341.9788799136877 23480.047843396664 259.81440407037735 1608.5367946922779 1608.8569995462894 5322.5489491671324 1692.4663768410683 5260.2323727458715 11014.321270987391 4821.3194436728954 2460.0591198354959 2187.7363536059856 1799.7060925066471 10584.900259062648 10453.977834179997 5857.9039168655872
leaf_count=39858 2085 14855 12577 10932 159291 23739 22967 16330 10536 1624 28851 15503 17642 39746 8982 6969 952 6304 41923 23079 3726 26768 10776 14133 30459 30943 22691 17187 30468 24921 28986 8153 22317 64489 45466 11893 43196 27236 8187 5131 950 20866 8565 44143 2141 4723 16079 70296 1084 5753 6439 18543 7089 17057 44677 16789 9355 8769 6936 38608 30513 21237
internal_value=0.0598695 0.0178271 0.0772595 0.0299349 0.0876622 0.0611129 -0.0218871 0.0197294 0.0431406 0.0549018 0.0834929 0.0856565 0.0506871 0.0996624 -0.0114281 0.0278739 0.00098532 0.0287294 0.0940447 0.0259552 -0.0453406 -0.0215849 -0.00750513 0.0717509 0.109432 0.0473635 0.04515 0.00795012 0.0647227 0.0576163 0.0632898 0.0363931 0.0331298 0.0610043 0.0750982 0.0163648 0.00312131 0.0710274 0.0362839 0.00816903 0.020603 0.0699104 0.0904561 0.0885815 0.074376 0.0158755 0.0423908 0.0898103 0.0519346 0.0658036 0.00941771 0.0588684 0.00253326 0.0740702 0.0192666 0.0529964 0.04718 0.0248642 0.0451979 0.0402578 0.0953811 0.052557
internal_weight=402819 117866 284953 90327.4 173301 111652 27538.4 50951.5 39375.9 70493.5 128616 109594 26350.5 44685.7 19045.2 13025.4 8570.54 28883 28371.8 24460.6 8493.15 10474.7 5981.7 41158.6 16313.8 37127.1 31136.5 22068.4 13278.5 17791.3 33366.4 9093.79 11801.5 27530.1 27880 8046.54 14021.9 19021.5 8559.17 3931.64 2588.85 13444.4 58259.7 42197.8 3359.78 2800.42 6402.74 38838 10495.6 10388.3 5050.39 5990.57 3699.01 5836.35 12659.1 10235.7 5414.42 2392.93 4075.83 18751.6 16061.9 12384.9
internal_count=1382483 484551 897932 353714 516997 380935 130837 206277 147437 246263 392292 330452 95450 124705 87253 51987 37518 112707 81669 96377 43584 49735 26847 134672 43036 134107 113479 93570 44601 62685 112156 35164 45396 93475 90071 33187 60383 61840 32765 16823 10671 44605 171161 125145 10706 11692 24232 114439 37764 34604 21294 20628 16071 18681 50981 36680 19891 9721 15123 69551 46016 43928
is_linear=0
shrinkage=0.05


Tree=2
num_leaves=63
num_cat=0
split_feature=0 0 0 2 4 2 11 0 0 0 3 0 0 3 8 0 0 8 2 2 3 3 16 2 0 2 0 3 2 12 8 12 3 3 2 1 2 8 2 4 0 2 3 3 2 12 12 0 1 8 0 8 8 8 2 8 8 8 8 1 12 19
split_gain=99082.8 20283.4 15673 4266.52 2834.65 2474.02 2207.58 2140.98 1790.38 1354.86 1241.46 1066.69 1057.48 608.811 554.133 530.706 471.68 443.374 409.441 367.782 347.971 332.483 327.933 338.211 321.434 290.861 271.186 262.237 254.778 251.722 245.45 245.223 243.203 223.557 213.016 206.26 199.52 198.701 194.287 192.531 189.469 184.871 183.938 183.754 183.277 171.638 167.394 163.203 160.099 155.879 153.711 151.696 143.504 143.504 143.176 133.647 132.602 132.294 130.802 121.749 121.242 120.81
threshold=0.0091996473767760305 0.0049863371062569646 0.01566363064104017 0.91441461974637483 -0.016110815903586369 0.8458863280333685 24.308400854846301 0.0064938861006942966 0.006668574987257962 0.012083561326163365 0.97499526625679067 0.024448998013271283 0.0041616192291676441 0.01316000922166635 0.0019380289098156276 0.0076855484557717705 0.011051763528969734 0.0010528884039616023 1.453354714688561 1.1720602027257965 1.0000000180025095e-35 0.019262797607730125 25.264446394002526 1.5322075079296187 0.0031410066274867266 1.453354714688561 0.026460068860887701 0.01316000922166635 0.54513417316478907 6.2593566797756006 0.00057689718097872088 -1.1531005633530904 0.24194228107857288 0.43150534550864955 0.49526896109505891 14.11581081463364 0.25667460242360507 -0.0012836652235841048 0.62273992351687235 -0.053588830716110362 0.019676850723014738 0.67705643167940577 0.0067993915701578473 1.0000000180025095e-35 0.47348447440319408 3.574402820570072 8.8343974067353255 0.010891927997578521 14.11581081463364 0.0017458275370833686 0.0059875846734838414 -0.00041274312247697515 -0.003205125264502123 -0.0051509826372009284 1.043165558192874 -0.0010152516236573907 -0.0014654997704602812 -0.004107792369470886 0.010676160455420735 2.2557780542562949 -10.866927730030577 34.380811493144655
decision_type=2 2 2 2 2 2 2 2 2 2 2 2 2 2 2 2 2 2 2 2 2 2 2 2 2 2 2 2 2 2 2 2 2 2 2 2 2 2 2 2 2 2 2 2 2 2 2 2 2 2 2 2 2 2 2 2 2 2 2 2 2 2
left_child=1 6 5 7 13 9 12 29 14 21 11 40 24 39 22 41 25 18 56 46 -17 53 50 52 -1 -7 -15 57 -22 38 51 32 -13 -18 -23 -12 -33 -20 42 -4 54 43 -3 -9 -29 -14 -8 -36 -38 55 -5 -21 -24 -2 -6 -27 -10 -11 -42 -26 -40 -16
right_child=2 3 4 8 10 16 19 15 17 27 35 31 45 26 61 20 33 -19 37 30 28 34 23 -25 59 49 -28 44 -30 -31 -32 36 -34 -35 47 -37 48 -39 60 -41 58 -43 -44 -45 -46 -47 -48 -49 -50 -51 -52 -53 -54 -55 -56 -57 -58 -59 -60 -61 -62 -63
leaf_value=-0.052452988758267031 0.075829894052887259 0.015977346659492794 0.11920591179677749 0.0083534463993276114 0.069718912904304833 0.053060652065882355 -0.0061963726222246289 0.028013862971456915 0.031374214076006234 0.083890654989433225 0.062271647116998285 0.093121400091595252 -0.010318067047833028 0.079556115948901038 -0.01120082561909793 0.0447042426284407 0.071909496886091939 0.03247451703533296 0.040659098591576175 -0.012084067629999633 0.018918142200667523 0.03316267852423712 -0.011151142873356668 0.045961633462444543 -0.038333862706300688 0.054649898275174004 0.092038676902405317 0.048136595694303889 0.031418472981217235 -0.010895810854197812 -0.029591861728264935 0.072705979685028857 0.083274677897970231 0.063898912579455625 0.039243176610865543 0.072963922956892621 0.078586881081668725 0.060294364911818527 -0.0098229104131837865 0.099945585166000245 0.078410466202822743 0.024563771419577884 -0.0046543313987633837 0.010239032057519328 0.057861638161237794 -0.030368923880297993 -0.034874650273094589 0.049101271747277755 0.08582900464041314 0.047504403398225703 0.027878440524440745 0.02551561810654996 0.027687453667262857 0.05052678860062329 0.076544582720466589 0.072085495676504713 0.04592024797553864 0.063555388179711195 0.066295323991163363 -0.019460977922947029 0.013993411831828728 0.040066067923559698
leaf_weight=4802.1016749590635 633.54397244751453 1357.1993485242128 1476.3861929923296 2392.4573845863342 23522.191575482488 11995.566953971982 5101.6000274270773 1772.3073328137398 1835.9749237596989 980.00283968448639 13922.818682640791 10661.307555705309 3940.7185170650482 6332.1765561252832 1162.8213057219982 3281.9568146467209 16175.531800553203 4400.8399904966354 1517.2592188417912 314.42162761092186 6314.8950601071119 8080.7157309651375 249.16707600653172 3419.1339634954929 5423.536496296525 1394.6169444769621 13907.578009873629 6862.1793198734522 11498.377194628119 2843.9646732658148 282.48309892416 6080.7794795930386 15227.437423497438 18870.199905514717 11188.937234938145 6671.757289648056 13724.350260004401 8543.7386104613543 589.03043873608112 10709.63156850636 26808.280988335609 5994.7976951003075 5294.8317974507809 8095.9546166360378 16478.214390933514 1463.7381243556738 565.20275810360909 6719.8403641134501 17188.954122692347 1033.6474028080702 1741.9260815829039 1826.8903194963932 5229.5672123581171 4849.8408048450947 11409.283468335867 5186.1769711375237 10684.418663024902 4349.5906218439341 2429.8488729149103 1014.3553559780121 5758.9394994527102 127.5143241584301
leaf_count=25887 1906 5623 3222 10137 71562 40694 22928 6823 6933 2775 44611 28288 18179 18235 5275 11688 49605 16520 5499 1439 25097 29885 1120 12433 27914 4669 36868 23547 43533 12897 1372 18009 42865 60167 40445 20068 39550 28480 2658 26735 78178 23506 23371 33395 53993 7176 2778 23253 47633 3582 6831 7287 20453 16544 33686 16091 38018 13779 7487 4942 23873 486
internal_value=0.055325 0.0167816 0.0708592 0.0273717 0.0800632 0.0564219 -0.0235096 0.0179556 0.0394088 0.0494247 0.0771233 0.0789692 -0.0339238 0.0934495 0.0251209 0.0245478 0.0641217 0.0469931 0.0498226 -0.00208478 0.0297435 0.0422621 0.0282155 0.033622 -0.0426628 0.0579122 0.0881334 0.0572875 0.026987 0.00257855 0.0142155 0.0835972 0.0873297 0.0675962 0.0399015 0.0657355 0.0809852 0.0573332 0.00552629 0.102279 0.074434 0.0176384 -0.000444895 0.0134313 0.0550024 -0.0157486 -0.00905672 0.0429422 0.0826138 0.0655553 0.0165798 0.0199946 0.0259211 0.0534503 0.0719483 0.0683905 0.0437872 0.0672946 0.0774036 -0.0353602 0.0117835 -0.0061345
internal_weight=413714 118842 294871 94107.1 180073 114799 24735 52802.3 41304.8 60142.9 147647 127052 16644.5 32425.8 14322.6 36958.3 54655.7 26982.2 22581.4 8090.6 21095.2 31472.9 13032.3 8897.87 11240 19610 20239.8 28670 17813.3 15844 2423.8 62882.8 25888.7 35045.7 25989.5 20594.6 36994.1 10061 13000 12186 64169.6 15863.1 6652.03 9868.26 23340.4 5404.46 5666.8 17908.8 30913.3 7614.44 4134.38 2141.31 5478.73 5483.38 34931.5 6580.79 12520.4 5329.59 29238.1 6437.89 6347.97 1290.34
internal_count=1382483 484551 897932 364649 516997 380935 119902 212464 152185 206127 431937 367258 84098 85060 56735 144042 174808 95450 78930 35804 80318 112033 50974 34006 58743 65036 55103 94094 68630 68422 10098 176345 71153 109772 93583 64679 105192 33979 55525 29957 190913 63724 28994 40218 77540 25355 25706 63698 87183 24342 16968 8726 21573 18450 105248 20760 44951 16554 85665 32856 26531 5761
is_linear=0
shrinkage=0.05


Tree=3
num_leaves=63
num_cat=0
split_feature=1 1 1 6 2 10 3 2 5 1 1 1 3 1 6 8 2 5 10 5 10 6 11 6 15 8 3 3 11 12 6 6 15 2 13 16 21 16 6 6 6 16 6 16 9 10 10 6 17 16 3 2 3 2 16 6 18 12 17 8 16 11
split_gain=64561.6 13084.8 10644.4 5018.85 2415.34 2190.43 1895.04 1666.23 1301.8 1214.29 967.868 825 811.631 804.505 799.754 790.71 654.77 603.924 560.392 472.148 467.909 464.918 517.415 408.434 405.347 379.984 370.994 356.733 312.623 286.077 283.514 281.799 267.515 254.555 253.051 244.111 242.173 237.756 286.581 234.268 220.597 262.029 220.046 364.449 275.143 218.863 217.756 218.089 213.164 208.367 195.673 184.933 184.144 178.903 177.357 404.181 177.249 175.408 173.206 173.132 170.904 169.269
threshold=3.8532794798382941 1.8758574202436742 7.5346127028150001 0.077029099976286 0.97913354489924587 28.886139708725072 0.37500297320376857 1.0746201795324113 0.024027387365738489 2.7731575018567312 13.098495789001143 1.1756714651069833 0.03508358015947579 2.7412809518958583 0.10030756052891535 -0.0085152806542047928 0.99966273069425182 0.0085525969054517457 7.5917117250248412 0.011744573460158095 27.882475129116155 0.3167735234714309 71.411166693167871 0.81249506601172194 16.72400325086576 -0.0056666778550958112 0.024995946767227693 0.83333544844829388 31.949034843605279 4.4444178495747861 0.64729212659228341 0.15207128066923933 15.371172822683379 1.0358859552395814 -0.017847353405013529 3.9151095623587291 35.497635329318307 9.4808392694555295 0.024927100221997449 0.050166208879529765 0.082165966977764543 34.813436104689082 0.065750358153800911 7.6842134137473836 11.255898928180441 93.636584926111354 7.5917117250248412 0.12878065041755968 426823.00000000006 45.222388055219575 0.99999998333332607 1.4089414001028555 0.99999994897983757 1.4989482572139285 9.3065674945172248 0.19436700932170606 19.001732843402348 9.4072163530112629 81812855.000000015 0.022535680639837078 14.715706380470801 2.9923633147467577
decision_type=2 2 2 2 2 2 2 2 2 2 2 2 2 2 2 2 2 2 2 2 2 2 2 2 2 2 2 2 2 2 2 2 2 2 2 2 2 2 2 2 2 2 2 2 2 2 2 2 2 2 2 2 2 2 2 2 2 2 2 2 2 2
left_child=1 3 5 11 9 12 8 21 15 32 28 -1 19 14 35 -4 -5 33 -11 25 29 -7 30 -24 -20 -2 -10 54 52 -17 49 -18 -3 46 -25 -6 53 38 61 -39 -26 -42 43 -34 -44 -36 -14 -48 -37 -23 56 -9 -8 -15 -19 -56 -12 -46 -47 -31 -49 -13
right_child=2 4 6 16 13 7 10 51 26 18 50 37 17 36 -16 20 31 27 24 -21 -22 22 23 34 40 -27 -28 -29 -30 59 -32 -33 42 -35 45 48 -38 39 -40 -41 41 -43 44 -45 57 58 47 60 -50 -51 -52 -53 -54 -55 55 -57 -58 -59 -60 -61 -62 -63
leaf_value=-0.045799694591563259 0.082266856162144464 0.024052618150283013 0.089923793420955717 0.0010985775874077634 0.047092462021890547 0.020585066662069232 0.065693566316832472 0.051084684299233844 0.093672874384004193 0.045348303238708115 0.075371949303833646 0.034217118169438891 0.053508855129682925 0.043342399391171099 0.037270353410550426 0.074965327293029627 0.0036545225296166143 0.064683265499446654 0.037195822785339006 0.079273629711722082 0.061385425923575578 0.047764795002649511 0.01747214708729649 0.052659919363838674 0.0033119097866917782 0.057436752973063457 0.081577329827887818 0.050941573659933771 0.054897493678743504 0.065222671786622818 0.058091617971008258 0.028608015770156203 0.014345722719284165 0.057618445692655298 0.051109032536997535 -0.0043347838106670518 0.029065730202902436 -0.040649787576670801 0.0034081462390052769 -0.016732834841978635 0.031184724325262349 0.019064835809619672 0.042524820936257202 -0.020869254494212043 0.013855618020578223 0.030472930565686892 0.031698299743212234 0.059274816249909851 0.023084212328582352 0.03295617886843312 0.062543892726080574 0.061648016960856894 0.056804673528278497 0.053427843432949887 0.043861705952410263 0.062948444890614505 0.067415550891440496 -0.0031144488404820474 0.06318978316858917 0.033211375268828475 0.041734225433784557 -0.035350180689425463
leaf_weight=6266.1397080123425 1847.9382571727037 4930.4446586966515 5590.375732049346 9119.0451406687498 389.57295627892017 3324.6644271463156 32472.80132676661 6955.8718378245831 9156.0994009971619 4454.4979079663754 27994.189088746905 95.736238598823547 5424.6967809647322 9851.2093299329281 10545.636131852865 28734.693582117558 1510.4272894710302 17996.991766497493 6305.6288597285748 5688.9604453295469 11720.609395653009 6971.7998394519091 2981.3499493598938 2393.0684121549129 1374.1865566521883 9270.6510277837515 20608.323317036033 10864.467418581247 12040.26907235384 5090.1623319089413 4186.936804920435 4508.6686055362225 1629.1741560250521 5676.6071385741234 1744.5773279815912 2054.1379965543747 1900.290330350399 2000.5970844477415 1695.0732722878456 2097.1256020963192 7607.6894758045673 10776.848443776369 767.57129633426666 1338.234940931201 12537.846031054854 9366.5870526731014 3859.7981265336275 1905.6479396522045 1082.335397824645 3603.0341013520956 4687.0204976499081 10247.249409198761 7100.4393752962351 7942.0500914752483 4026.8884381353855 8912.3264190554619 9333.7439693659544 1733.2255800068378 422.7977861315012 460.60961870849133 5119.0116750895977 1008.965075597167
leaf_count=33757 4904 18977 13800 39303 1305 12950 95741 22892 21834 15090 77094 352 17594 34048 37985 79869 6441 53409 22547 15404 35522 23193 11717 7795 5954 29160 54127 35028 38117 14863 13018 17161 6663 18161 5669 9087 7139 10625 7375 9981 27956 42100 2667 6506 50658 34177 14321 5980 4229 13145 14015 31985 22337 26080 13649 26829 26898 7472 1286 1578 17756 5208
internal_value=0.0513261 0.0194534 0.0632892 -0.0100875 0.029039 0.0526152 0.0713893 0.0446357 0.076971 0.0224261 0.0665389 -0.032667 0.0577832 0.0395081 0.0303778 0.0721674 0.00954687 0.0552075 0.0289592 0.067558 0.0700097 0.0383723 0.0402395 0.034268 0.0261582 0.0615636 0.0852981 0.0587359 0.0619522 0.0729579 0.0470794 0.0223462 0.0137334 0.0484991 0.0378635 0.0097635 0.0460321 -0.0207364 -0.00950584 -0.0284096 0.0226358 0.0240802 0.0109078 -0.00153544 0.0133631 0.0347936 0.0453251 0.0412463 0.00512697 0.0427192 0.0721734 0.0573769 0.0640987 0.0478441 0.0614732 0.0570083 0.0733825 0.0117946 0.031886 0.0625663 0.0464926 -0.0293213
internal_weight=423304 115522 307781 28301.8 87220.6 132792 174989 52197.9 81360.9 53455.3 93628.5 13163.6 80594 33765.2 14071.7 51596.5 15138.1 63786.4 30518.9 16807.5 46006.1 34994.8 31670.2 16908.4 26064.4 11118.6 29764.4 41800.7 51613.5 34285.5 14761.8 6019.1 22936.5 21985.8 13927 3526.05 19693.5 6897.5 2799.77 4097.72 19758.7 18384.5 18006.1 2967.41 15038.6 11534 16309.2 10884.5 3136.47 10574.8 42015 17203.1 39573.2 17793.3 30936.2 12939.2 37327.9 14271.1 9789.38 5550.77 7024.66 1104.7
internal_count=1382483 456666 925817 130203 326463 430022 495795 177827 221593 206590 274202 67298 252195 119873 52606 145632 62905 202727 113647 49468 131832 122950 110000 60644 98557 34064 75961 128915 156195 96310 49356 23602 92943 73812 48927 14621 67267 33541 12935 20606 76010 70056 73966 13169 60797 41132 55651 38057 13316 36338 118007 54877 118078 60128 93887 40478 103992 58130 35463 16441 23736 5560
is_linear=0
shrinkage=0.05


Tree=4
num_leaves=63
num_cat=0
split_feature=0 0 0 2 2 4 6 0 0 0 5 0 3 0 3 5 0 5 5 0 2 7 4 3 2 5 16 3 0 5 5 2 0 5 7 2 2 2 2 2 5 1 3 2 2 4 14 5 7 6 2 5 0 7 5 27 2 7 3 14 4 7
split_gain=74589.5 14195.2 13923 2790.39 2352.48 2169.66 2021.71 1259.86 1246.08 1059.85 920.208 858.079 816.778 792.8 652.702 546.964 443.114 541.846 399.11 367.195 326.932 320.993 285.776 284.313 279.465 303.812 278.39 262.932 252.095 246.096 239.224 223.183 223.09 213.282 205.197 203.204 202.665 202.059 197.909 182.059 174.012 167.573 165.373 158.897 154.773 149.397 148.977 242.085 161.094 146.838 139.217 137.545 137.335 135.503 131.368 130.424 129.101 128.442 124.898 124.043 123.47 122.921
threshold=0.0085838376903237864 0.0049863371062569646 0.014976473511440732 0.90830566039671079 0.8458863280333685 -0.0085034068312214699 0.07961097567267883 0.0064938861006942966 0.011131779115052164 0.0062452156112712048 0.0092094711976238273 0.0034438394834686997 0.98076516229818167 0.024193607760309318 0.019262797607730125 0.008474669585342794 0.010891927997578521 0.010968911346335803 0.0039079457188903538 0.025881854858696918 1.423322738159748 0.0062442776716893364 -0.030042873733243488 0.019262797607730125 0.76628676706629151 0.0050432399912954404 25.264446394002526 0.14286103499715982 0.004268908327375723 0.0057115927695127969 0.016239032032660774 1.4989482572139285 0.0075616216882651273 0.0053715684152930822 0.0069168967073267593 0.44625823325617958 0.6347968555604464 0.62672652852120725 1.1720602027257965 1.163223347910759 0.00526083477843085 11.662921452210588 1.0000000180025095e-35 0.70709354775379663 0.52071057581256763 -0.035489221477517312 0.97597924428272431 0.0023419739871292302 -0.011980033910649999 0.088951639591581644 1.6797120626856128 0.021665425629050605 0.0075616216882651273 0.016131429936677159 0.0034098119874126933 0.11921079947391748 0.74326331822500158 0.022108233697661354 1.0000000180025095e-35 0.99290395262901854 0.025320020495045007 -0.0047149353959666787
decision_type=2 2 2 2 2 2 2 2 2 2 2 2 2 2 2 2 2 2 2 2 2 2 2 2 2 2 2 2 2 2 2 2 2 2 2 2 2 2 2 2 2 2 2 2 2 2 2 2 2 2 2 2 2 2 2 2 2 2 2 2 2 2
left_child=1 6 4 7 8 14 11 29 27 15 20 -1 13 44 22 26 17 31 37 -16 33 24 -4 61 54 -26 -5 -2 -13 34 38 53 56 -11 36 -25 58 42 -18 40 -28 51 -9 55 -7 -21 -15 48 -48 -22 -19 -14 -12 -6 -8 -29 -20 -35 -3 -24 -50 -10
right_child=2 3 5 9 16 12 21 18 23 10 52 28 41 46 19 -17 30 50 32 45 49 -23 59 35 25 -27 39 43 -30 -31 -32 -33 -34 57 -36 -37 -38 -39 -40 -41 -42 -43 -44 -45 -46 -47 47 -49 60 -51 -52 -53 -54 -55 -56 -57 -58 -59 -60 -61 -62 -63
leaf_value=-0.04758609951190531 0.040252643334037295 0.015086884978410812 0.092192701302777222 0.010391068407946038 0.051036104625905299 0.057996028239192171 -0.0051008037319413904 0.035165515216395889 0.062833295041191659 0.043464845199534072 0.012209151735498875 -0.0309003529096952 0.054782507501497282 0.074186968327900241 0.066038972427201678 -0.0083836638667568481 0.055002943070238175 0.033566445653793249 0.0057787907750028933 0.083098940160165391 0.030057980588402602 -0.033441825518991532 0.082437748564458152 0.036796278670377762 0.013489397552976954 -0.017263936611360442 0.026406613866704728 0.030264522879737271 -0.013846826264498346 -0.010496302773256199 0.05064665537362846 0.061211328684533786 0.020107992651209206 0.030450672111874907 -0.013374567944763025 0.046692419403382569 0.014850143352760173 0.039021629660509427 0.064011775142015767 0.035547496542632825 -0.0052076627402854458 0.060396233630217566 0.016962022115516128 0.036967744506737073 0.063607640368856064 0.073637052920309851 0.075646565662833731 0.069745906551222023 0.054900008597792205 0.051742606221597071 0.047517196414660137 0.04287820960413799 0.027119808403203851 0.030044242923124603 -0.026022351771065752 0.020606501471749045 0.018632061550468097 -0.027890640706014682 -0.002341041870364761 0.073061120684495176 0.027237654494464993 0.049073698648293605
leaf_weight=6330.225315913558 8316.7152797430754 1289.8084667772055 5803.2329263389111 2918.9235210418701 11239.226358503103 16809.545372530818 2434.6330602318048 1826.753241032362 3225.8560406714678 5480.7734101265669 2851.0028788745403 4962.6281587183475 8654.5082547366619 17020.751115381718 16007.689292952418 1630.8662056773901 10946.151086494327 5507.6829426139593 6577.625914722681 5497.900093972683 867.05654245615005 830.08325758576393 10199.675857514143 6829.7576862573624 3798.4066643416882 1018.3992365449667 1534.7006062418222 11594.322130739689 3847.0031721144915 3346.4197126477957 9394.8933161497116 6299.7643004953861 10959.988518804312 5194.4884899556637 1385.0834702551365 21570.09199732542 4748.4552038609982 2843.2029110938311 13759.597608134151 3943.7702089548111 607.58167101442814 9249.5708851218224 3935.7370906919241 5797.7376134544611 45674.494106069207 17296.339461311698 742.686468064785 36085.992852658033 1893.7568411380053 7836.7032344639301 2648.093358784914 3371.8571095913649 3369.3328677564859 825.19278399646282 1084.5525301843882 5004.4000116437674 2779.0262089967728 96.08450348675251 5065.013101041317 5391.5529029816389 512.57103908061981 3266.9621141850948
leaf_count=35482 27998 5250 12679 12023 35938 48922 10902 6494 9355 18638 11164 25772 26270 44072 44143 7150 33269 19009 26947 13294 3091 4075 24743 23047 15623 4714 5821 41573 18123 14986 29007 18776 41766 18728 6296 69075 19279 10105 39750 14125 2599 26709 15397 20047 129306 44515 1916 96359 5544 25201 8524 10889 12274 2896 5211 18585 10822 426 22041 13826 1779 10143
internal_value=0.0477643 0.0111928 0.0595719 0.0212392 0.046567 0.0677709 -0.0223234 0.0128825 0.0400056 0.0315339 0.0370281 -0.0335437 0.0643581 0.0659746 0.0757092 0.0182601 0.053668 0.0488205 0.0190896 0.0718431 0.0423756 -0.00379051 0.0827208 0.0464706 -0.000837879 0.00698734 0.0230855 0.0326609 -0.0234534 0.00154515 0.0574378 0.0535834 0.0152669 0.0365522 0.00477181 0.0443125 0.00703549 0.0281143 0.0600203 0.0291738 0.0174404 0.0553364 0.0227327 0.0298417 0.062098 0.0759192 0.0702804 0.0685857 0.0552904 0.0495824 0.0380961 0.0514449 0.0202857 0.0496003 -0.0115485 0.0273527 0.00959635 0.0293911 0.00119622 0.0791952 0.0490077 0.0559099
internal_weight=431833 105394 326439 81088.4 126226 200212 24305.9 44757.1 65605.8 36331.3 25695.4 15139.9 140016 118740 60196.4 10635.8 60620.6 26520 28922.3 38801.9 19475.1 9166.07 21394.5 34892.7 8335.99 4816.81 9004.98 30713.2 8809.63 15834.8 34100.6 18364.2 20316.6 10771.3 12488.4 28399.8 11103.3 8605.69 24705.7 6086.05 2142.28 21275.9 5762.49 22396.5 62484 22794.2 56255.8 39235 3149.01 8703.76 8155.78 12026.4 6220.34 12064.4 3519.19 16598.7 9356.65 5290.57 6354.82 15591.2 2406.33 6492.82
internal_count=1382483 430525 951958 310623 406992 544966 119902 179383 219823 131240 89522 79377 391766 327898 153200 41718 187169 85143 111531 101952 66084 40525 51248 111620 36450 20337 34568 108203 43895 67852 102026 57610 79535 37792 52866 92122 46570 31996 73019 22545 8420 63868 21891 80205 178228 57809 149670 105598 9239 28292 27533 37159 23438 38834 16113 60158 37769 19154 27291 38569 7323 19498
is_linear=0
shrinkage=0.05


end of trees

feature_importances:
atr_pct=57
vol_ratio=46
close_pos=36
hl_ratio=34
gap=24
BBB_20_2.0_2.0=16
STOCHh_14_3_3=16
ATRr_14=14
ret_1=13
ret_3=12
BBL_20_2.0_2.0=9
EMA_9=8
BBU_20_2.0_2.0=7
price_to_ema21=4
OBV=3
ret_6=2
ADX_14=2
EMA_21=1
EMA_50=1
DMN_14=1
BBP_20_2.0_2.0=1
DMP_14=1
STOCHd_14_3_3=1
MACDs_12_26_9=1

parameters:
[boosting: gbdt]
[objective: binary]
[metric: binary_logloss]
[tree_learner: serial]
[device_type: cpu]
[data_sample_strategy: bagging]
[data: ]
[valid: ]
[num_iterations: 1000]
[learning_rate: 0.05]
[num_leaves: 63]
[num_threads: -1]
[seed: 0]
[deterministic: 0]
[force_col_wise: 0]
[force_row_wise: 0]
[histogram_pool_size: -1]
[max_depth: -1]
[min_data_in_leaf: 20]
[min_sum_hessian_in_leaf: 0.001]
[bagging_fraction: 0.8]
[pos_bagging_fraction: 1]
[neg_bagging_fraction: 1]
[bagging_freq: 5]
[bagging_seed: 3]
[bagging_by_query: 0]
[feature_fraction: 0.8]
[feature_fraction_bynode: 1]
[feature_fraction_seed: 2]
[extra_trees: 0]
[extra_seed: 6]
[early_stopping_round: 0]
[early_stopping_min_delta: 0]
[first_metric_only: 0]
[max_delta_step: 0]
[lambda_l1: 0]
[lambda_l2: 0]
[linear_lambda: 0]
[min_gain_to_split: 0]
[drop_rate: 0.1]
[max_drop: 50]
[skip_drop: 0.5]
[xgboost_dart_mode: 0]
[uniform_drop: 0]
[drop_seed: 4]
[top_rate: 0.2]
[other_rate: 0.1]
[min_data_per_group: 100]
[max_cat_threshold: 32]
[cat_l2: 10]
[cat_smooth: 10]
[max_cat_to_onehot: 4]
[top_k: 20]
[monotone_constraints: ]
[monotone_constraints_method: basic]
[monotone_penalty: 0]
[feature_contri: ]
[forcedsplits_filename: ]
[refit_decay_rate: 0.9]
[cegb_tradeoff: 1]
[cegb_penalty_split: 0]
[cegb_penalty_feature_lazy: ]
[cegb_penalty_feature_coupled: ]
[path_smooth: 0]
[interaction_constraints: ]
[verbosity: -1]
[saved_feature_importance_type: 0]
[use_quantized_grad: 0]
[num_grad_quant_bins: 4]
[quant_train_renew_leaf: 0]
[stochastic_rounding: 1]
[linear_tree: 0]
[max_bin: 255]
[max_bin_by_feature: ]
[min_data_in_bin: 3]
[bin_construct_sample_cnt: 200000]
[data_random_seed: 1]
[is_enable_sparse: 1]
[enable_bundle: 1]
[use_missing: 1]
[zero_as_missing: 0]
[feature_pre_filter: 1]
[pre_partition: 0]
[two_round: 0]
[header: 0]
[label_column: ]
[weight_column: ]
[group_column: ]
[ignore_column: ]
[categorical_feature: ]
[forcedbins_filename: ]
[precise_float_parser: 0]
[parser_config_file: ]
[objective_seed: 5]
[num_class: 1]
[is_unbalance: 1]
[scale_pos_weight: 1]
[sigmoid: 1]
[boost_from_average: 1]
[reg_sqrt: 0]
[alpha: 0.9]
[fair_c: 1]
[poisson_max_delta_step: 0.7]
[tweedie_variance_power: 1.5]
[lambdarank_truncation_level: 30]
[lambdarank_norm: 1]
[label_gain: ]
[lambdarank_position_bias_regularization: 0]
[eval_at: ]
[multi_error_top_k: 1]
[auc_mu_weights: ]
[num_machines: 1]
[local_listen_port: 12400]
[time_out: 120]
[machine_list_filename: ]
[machines: ]
[gpu_platform_id: -1]
[gpu_device_id: -1]
[gpu_use_dp: 0]
[num_gpu: 1]

end of parameters

pandas_categorical:[]
